-0.6137303244541421,-0.2962046958741986,-0.17741008746243447,0.30920809055779863,4.747464929548516,-0.3115730653673865,0.4121647334176685,-0.39545477819507396,-0.7758666923389962,-0.37459432466599657,0.9207657743467456,-1.3823358457709878,-0.015155034245568466,0.7097353507389856,-0.20469008059261992,0.05960875284281083,0.06649890302567664,0.3431993064377177,-0.2735393829011539,0.24536831529567657,-0.02690521737855471,-0.9125390514300814,0.0991599416554359,-0.1382924824102724,-1.8363677306577237,0.8036544113234506,0.07825648932019126,-0.024409464748484808,0.25642088960150683,-0.3215826951634669,0.053949754630411954,-0.9188799734902955,-0.9442922655816344,-0.5056668406278714,0.20971166791415521,0.4843075408074548,0.22749496542571515,0.2626007058074013,0.22509221785772707,0.6154162072275179,-1.4600957156510097,0.884236360870411,-0.2780913930604052,-0.2144635416172822,-0.04685220004451909,0.2956794198154353,-0.05453656300965718,0.062182869219147986,-0.01152351108467061,0.9885634863610037,-0.3029895690160851,0.08615140039250548,0.08035535925332989,0.6721248504090931,0.2442666461357729,1.3956288317072112,0.6031849745345941,-0.43753234571944,-0.039489197587825535,-0.5532815180454763,-0.21885911474569905,0.5277590187277454,0.026456339977475058,0.55950705971847,1.0484379803441222,0.06222055236054579,0.002555741854949304,0.5058827114235552,0.0021804159577360122,-0.31582792403242704,0.14422906996951987,0.05501676385723772,-0.47806425513332246,-0.24818791327868261,0.11956104882181966,0.5403261748186194,-3.1896678231203524,-0.19044732000958456,-0.12644543692047908,0.6429390063128623,-0.4342025538809584,1.1280179574871925,0.17511397585319288,0.803179166675306,-0.02641312971885408,-0.02436008293657328,0.11025115352670978,-0.12195150294317836,-0.17552523906311857,-0.08950712682182775,-0.36878439476411057,-0.03570847180314866,0.22032933426995613,-0.23001392876104917,0.1301244963731065,0.11911741351672973,0.7908983218769983,-0.2693653096323556,-0.03697453759004881,0.00028421501132680293,-1.2558815408573385,-0.7083984312843211,-0.958108099198906,-0.11401561674729567,-0.3305146926161327,-0.1418899284038679,0.9956407371114849,0.022129327954760122,-0.053145590515909856,0.0883301049708121,0.3445801598751989,0.039007465167604345,0.5355409490208946,0.42201640305385335,-0.06068937150441058,0.5377537579073758,-0.4270388461330877,-0.1750432026480742,-0.08562607997524753,-0.27361237078524453,-0.3211530473375066,-0.14744671242023327,-0.30243325367486146,0.3219891842305816,-0.06185775969423527,-2.1847940609554346,0.15159751220180528,0.6917464466101877,0.031980879628427966,0.7730792649467518,0.2781610724972831,-0.34037779937570606,0.0058215378703252345,-0.7682187081681341,-0.08690362614335338,-1.528962081430838,0.26975675281771255,-0.05204520696982986,-0.3745160619440613,0.36954874399356874,-0.967926673089959,-0.8373582292768744,-0.02075236546321361,0.05267806798000643,0.44336928491122934,0.1710636430466608,0.16684091345935237,1.4494184270953647,0.2636284325047166,-0.0660153024927773,-0.2985833315692183,1.5174792295477344,-0.1383738264697969,-0.16502569106096765,-0.3627378410523121,-0.025095893491273755,-0.28081881559861793,0.13779304936181067,0.16395222344353624,-1.0460042758416386,0.4550154984396395,-0.04821116440670032,0.11394624331490222,0.24408718711056718,0.1318786968761194,-0.11120566833691524,-0.9680594869937078,4.024879515109582,-0.016419812294755847,0.42911297159399525,-0.03016315023365441,0.06891258622001278,0.6885659609255085,0.2586670872120846,-3.9872771925817148,-0.12287346575117834,2.2019906771735585,0.1544280398163597,0.11698835944600194,0.20128494118265097,2.7848715437457927,0.3368535615834684,0.019246600854696275,1.2514756356049412,-0.031384394946215595,0.14932104267129742,0.03659963918673836,0.24991571319330083,0.004683259969820786,0.08209466116847863,0.07049920878191625,0.316729124215727,-0.09097612229419964,0.010929616566876278,-0.34271298777252507,-0.046335105313188164,-0.1050879285466963,0.5280048293944861,0.0013068768729718166,-0.4759833066587853,0.031350024416391085,-0.11131731664436983,-0.01629451613498595,0.392376672215129,0.19323732355065973,-0.3395998487355009,-1.8164052243168722,-1.3190370834009306,-1.2069545215692752,1.1591205366221813,0.4892447629420426,-0.013043965383829528,-0.03135629931531588,-0.24401499879571817,-0.11378867043139503,-0.8435886504871438,-0.2164039197304469,0.2033092129259002,-0.1013967638275714,-0.4560299450429309,0.06731295529227842,-0.3621221991453232,-0.11935123260633689,0.5912866858883158,-1.3472201124641157,0.09336565063905049,-0.1378854501902134,0.17725263079616357,0.1908890907597368,-0.09569176955371972,0.7792926261821744,-1.5081244412602681,-1.8030334963624546,0.027220268299442688,-0.06141697000865312,-0.2239666662805673,-0.008069273955174717,0.2752730659519988,0.592907595912764,0.03798822552822146,0.13104652478991866,0.1175865994852166,-0.3383010002231314,-0.012419735612220498,-0.27077183921152675,0.07664028470932595,0.39192018082577224,-0.7297651685215002,0.009605195275158204,-0.24270665582838455,0.991270844808238,-0.0027981820607111923,0.7743904087608176,0.008198819789574072,0.08031782480052793,-0.2893800023561834,0.1235681789056484,-11.70575308509286,-0.01930865571182574,0.0734076277500067,-0.009034984516525658,0.12868494517269558,-0.8637504057601211,-0.6085407228779784,-0.7852090612622312,-0.03385476706369947,0.8410389322309452,0.48145543478685804,0.37672044701116375,0.07738882222779563,-0.08918157984854765,-0.06014368478696907,0.14110963947095306,-0.13021330049451996,0.14861190631844598,0.2677710440498758,-0.5700310964302205,-0.9270933697516623,-0.6395242264849987,1.0959717182887088,0.03488972418881569,-0.31238273082766665,0.13995767292786876,-0.40072180512636857,-0.16989588531397495,0.6062750564623933,0.32498545724019473,-0.0012320697385301718,0.10364487785864746,-0.004783016590715341,-0.22137469708685112,1.183693355304957,-0.008531653844506536,-2.15610453829207,0.06687945904364705,-0.6611027161160041,-0.12197561225926139,0.38045419252347634,0.04371515545214274,0.0978987045600123,-0.17025995288367243,-0.023170176495905897,0.14873291542323488,-0.45372813529029626,0.018183362681428967,-0.03200303358984435,0.49930917290596577,0.9504864661397137,0.0917095880872772,-0.9731805418877423,-0.7699441964504752,-0.3179206969012214,-0.10027450017525852,-0.10818333646280053,0.05984933275531535,0.21236395597280622,-0.6095478112966752,0.10997345439799038,0.700022115729455,-0.7419602807514707,0.7521308571261205,-0.08260633629432039,0.10043927505283146,2.0015421685607904,0.250695449754978,0.28983322162968145,0.18454853175611866,0.04034171914022797,0.1548963403680943,2.8115467424871574,-0.24510701770449583,0.5702761639309045,-0.006153082736870632,0.09471599194225004,-0.10555669933074685,0.05004423970836467,0.015429968719045528,0.7531407231886083,-1.6755463785145892,-0.46450952616561736,-0.025884875233489864,0.06015650629441686,-0.017270012833961686,-0.1551404586951766,0.7762787477526706,0.12400343023219673,-0.34891673963655584,-1.8440933660812362,-0.03836739853945046,-0.1507193031756314,-0.09670604574966384,-0.06248071891219329,-0.014770596209878107,0.25849205931925207,0.20292677184297225,-0.010698398569262477,-0.38137099496858573,0.16994645594628985,-1.3225503003425083,-0.02543715812880616,-0.6482590421216643,0.43070184921753096,-0.24474225451404555,0.8987086322911365,0.11731996412481492,-0.2227913958422978,-1.0373739928621395,-0.09518944973724053,-0.14197061079211018,0.1343250249618881,0.08669182861893658,-0.13130383343176474,1.8380271679740525,-1.1723360741833908,0.23764255408607804,0.06569226304600857,-0.08051630047016702,-0.056769227762554685,1.2489311159489656,-0.3453908732845517,-0.16991426362722797,-0.030540389967929876,0.7136660778787932,0.2283926912290036,1.7469799253199023,0.3000918047606013,-0.10092703838298771,-0.1237034268669293,-0.5199811477568083,-0.03791706484798093,0.0759233069551353,-0.17003348968204288,4.227680117380808,2.9723898504632777,0.434593074970065,0.02923668296908556,0.4012168531351928,0.6612469803351759,0.46224503636347886,0.05075374196900543,1.02186745962407,0.06784378442382538,-3.034965563992875,0.18389746836671636,0.05446324531374982,-0.24485271071202974,2.3287784338615722,0.09674198772942984,-0.008029576686774969,-0.8164776408142879,0.15095736695934425,0.3709301990142697,-1.5477442740750968,0.17274760789082755,-0.4933713023700093,0.24520021309262172,-0.08103555504675576,-0.2653452662996652,0.24802979886102472,-0.2997452690286408,0.1293138773643319,-0.0023329401398671902,0.2858861992826632,0.019282378496733407,0.048695222870087845,1.5628222920458104,-0.1391348585815849,3.3562147509331868,0.49624857960946894,0.0753718015976926,0.2398477714909694,0.6122477529446679,0.3575625660034052,-0.12537733497445522,0.22332573792796037,0.3709429038648598,-0.5558806107192406,0.24381332950667525,-0.26753041812508344,-0.0822900465652,-0.01730019080383564,-0.14910477751064402,0.4225005066739531,-1.8154428061577572,0.07735102856826737,-0.030855862967981696,-0.27544042978436994,-0.10843828066051701,-0.5795570132080349,-0.20296061306015967,2.3105658273738885,-0.25958849387852223,0.29279918386120274,0.7070915230366058,0.02321230987027462,0.1905847263036076,-0.07916907201425356,-3.2389199686799373,-0.6514701275916971,-0.5153900270760651,0.7258641029077314,-1.0136063155480435,0.03674355319412253,1.0179243540452283,-0.6758849437133675,-0.9694234442112785,-0.26796732925126926,1.2979649231317338,-0.3746940429182792,0.01174313970362235,2.1225831702942783,-0.483450036071367,-0.09026261537459712,-0.038832416645156465,-3.2685803062586465,-0.22633570419874713,0.578602898664328,-0.11283289102904853,0.8349088011481126,-0.33324358897864936,-2.777288186746425,-0.08529415127698155,-0.20928281754019398,0.06585423120409006,4.029130157839348,-1.039633108321908,-0.09145281637038644,0.29371132707584363,0.8680995786310785,-0.6940196089736242,0.12557076032008774,0.7412196353509696,-0.2604096372147573,-3.794336193321829,-0.011769792371167405,-0.001461101051488338,0.35420262417739573,-0.21739946145463598,-0.5961197508687437,0.48758883902943273,-0.12551926424169352,0.9078428209803259,0.24781806458084887,0.06046026423895332,0.27450856673780266,0.22436779520113967,-0.1022764479382135,-0.3969923504620592,-0.8678691253638843,0.457427911767953,0.2523405782849952,0.03635457810431988,0.3667043900135775,0.1689851166460311,-0.4121072301697038,-0.22491673722485095,-0.20843888820995327,0.24205543382275574,-1.7069129629840665,0.48848242791952573,0.08823400314388007,0.38484581704308146,-1.083356430023392,0.7041396050689767,0.5570543745063895,0.12392327202588384,0.22668327099818872,0.07201130496409391,0.7816857898325861,-0.12205412349455391,3.315448131900263,0.043726916026684964,0.3908267880278559,0.06434438487703988,1.1737727498344819,-1.0037862634055859,0.29713564878853677,-0.04641051669545207,-0.2618821919680257,-0.12387007802133404,-2.4293260524446145,1.0114727673301085,-0.035642622892011505,-0.3736032182867726,-0.5955619029564377,-2.4207258382554975,1.6706921308126041,0.3243747243108344,0.22362292984752483,-0.0034362559858280677,-0.4622945984984769,0.17096577909900842,0.8302359383764176,-1.2478873266926038,-0.6524793692605027,-0.12966807732485156,0.0685093609372744,-0.13392853938631594,0.5583452810019448,-0.20124917781913623,1.107390668876928,1.4596991794154512,-1.3851818163258853,0.5785915948503165,-3.329599660689246,-1.2100447073788887,1.8533660813526047,-0.11727346068046175,1.157118065563265,0.30201204432345824,-1.312525430690403,-0.26133281583945916,2.039820412240105,0.3263829276478345,0.03885809638764725,0.640847273032419,0.016341438272450434,0.10933867160977041,-1.1584051626995402,-0.2664957878877889,-0.6154432568411258,0.20710602682335225,0.36846868930463933,-0.3162520782401526,1.4900532827625412,0.2576521151079609,-2.2011441150103495,-1.4376930171193258,0.03895570064608087,0.439817790733766,-1.4307165995463806,0.1623185166333595,-1.1104177865187879,0.8805622579675818,0.20321520586952266,-0.25418666383692373,-0.17934450740261046,-0.03380427915135079,-0.13794721911234883,0.30126756702277063,0.44540665666434864,0.29493155928230513,-0.02386452087020316,0.18231572075789124,-0.38964112529555495,0.49183063849757475,-0.09596498957169064,0.15733893640358723,0.0010333019168173587,0.049023245289587035,0.09342708847375203,-1.015744305922741,-0.41076374145037414,-0.2784235906230402,-0.18159284107293575,0.22863337120543228,-0.6857960234697605,0.040272775690881585,1.6704662191276736,0.39709280120804546,0.03790131235800948,0.39032617576005396,0.3819677704167625,-2.7779106057645975,0.6772496708546241,-4.812338073368575,-0.35068506372248326,0.30261468857769686,0.040619341142512526,0.14812186944526465,0.43579022177010124,-0.2347823951682709,-0.11147491855765577,0.4788089953132892,-1.5949645233171876,0.3557052208010436,0.059759922473173216,-1.4910444578772815,0.02840398376438751,-0.0669703273763398,-0.1389965378823751,-0.06820448403160828,-0.24275310650487317,0.12613902380512804,0.04356733933087729,-0.6826665658768954,-4.861665137324206,-0.5042545673451343,-1.8655836781886308,0.04809198048239807,-0.6064558198123059,-0.8349639381516601,0.6979014539905292,0.30389315152458,0.20960769571852336,-0.19465144988574015,-0.05827626309847552,0.279359468429488,0.38067799155259757,0.5454728456086807,-0.1615947104485778,0.0533491047729045,0.00999570010533551,-0.05782697376396336,-0.12134155122901451,0.2985532309841245,0.09656406132714286,-3.9085571350071286,-0.5552851653556744,-0.7516517736681108,-2.463090128176948,-0.012175286032541803,0.035581173431309204,-0.10176910038613325,0.03582716220526983,0.03701903538719906,0.17065697648704256,0.33270117084904344,-0.3118309846200444,-0.5354829637037093,1.1116144039714546,0.4093102656521998,-0.36489100190017826,-0.45481028086797304,-0.5763018901974376,1.4720949398922325,0.2002613629598992,-0.004782447815103257,-1.7860384572961843,0.15525637329335232,-0.3627777495450372,-0.005603638504338184,-0.3585551773130144,-0.23139336516170558,0.02180687478715145,0.11075416352467536,-0.07136054759742914,-1.4215398629612253,-0.11135816705639712,1.0004572741568307,-0.028884207258288285,-0.23086506256149264,0.13797983620762122,-0.21554533901240813,0.02458507971107364,2.2409713290297755,0.44309647868234864,0.31710372720897473,0.22435984187099056,0.1737692873106829,-0.23477623935819913,-0.09733151283050505,-0.10093714645105112,-0.7126196629410521,0.026026938941900616,1.258690369893435,0.04657175087965415,1.797317819489595,-0.07937758087846987,-0.052157907492620136,-0.19717410618244266,-0.04639702840790836,0.5656573212882122,0.21917696449980306,-0.42090682010320385,1.837739036350633,-0.4520425075672067,0.019727923561194998,-0.220736048105176,0.11696956161663397,0.0011667168097403988,0.39051239664379533,-0.10547150543873914,-0.2642480469567801,-0.03547595908744914,-0.0686679156805483,-0.133314999360679,-1.634139256752108,0.16591902458095706,-0.06670806467853341,0.09309783657136576,-0.05232265292311044,1.0044168953157413,-0.21708463902710184,-0.9201039883886449,-1.0924940137888812,-0.15454058545809565,0.8398729621574951,-0.47554178816846976,-0.04857663745923712,0.2848440006293205,0.3328591180644482,-0.30165387565138085,-0.4218100128711652,-0.5910158754595207,-0.08705197928921715,0.27106142316337994,0.4409727856324823,0.16813907505550185,-0.12494504785410276,-0.3662465812805232,-0.05016943592335379,-0.2223624714292586,0.7588543830364233,0.38384016890372075,1.677364348920058,-0.3936862554490916,0.13308594514364236,0.3558260948798979,3.0998240283874465,0.001207462556263991,-0.2104269980874943,-2.6335643910206366,-0.7242794180747517,0.16686963806905672,-0.568497293181137,-0.46780468705991823,-3.297469041827327,0.3728897061541418,-0.061428938764590345,0.9272334484845398,0.42512189530886907,-0.6980345057394586,0.44385661219587497,-0.08709317768693416,-0.1433914548106098,0.21487974389086276,-1.7841288815197966,0.6166615598374449,-0.37983885752831686,0.010265742654828887,0.08734583692491305,0.34453121651367935,-0.7956368399616736,0.008371700879038158,-0.2230363337270398,1.173805375830196,1.566613610063416,-2.7484049528256214,-2.1811054888399997,0.2047486431306099,0.017950218803508205,0.19046976415864192,-0.20161338163555068,-0.0703179417616674,-1.9527702222564887,-0.11886313517664569,-0.369050454202543,-0.2902406642733155,0.6496547772678897,0.25113401327540785,0.9339732599863649,0.13663829318338558,0.6068436965363685,-0.444927075919753,0.07864498503016644,-1.506535923536851,-0.038032570583472355,-0.10156408531894008,0.05126745472396774,0.6281185467528827,-0.4617908553474879,-0.7422975188428236,-0.117297555545661,0.07717284277535247,-0.1353749215181073,-0.35593878232680226,0.9678816011361837,0.10528428015416376,1.0319243076827591,-0.4501408782341556,-0.21505299058046956,-0.009718643193514695,-0.11927260474026845,2.4438630552604916,0.025303190345578624,0.48802496774340104,0.1929017848761634,-0.004458982625603093,0.18961269244264242,-0.8447063211453446,0.17477291179791563,-0.49344359618060646,-0.44166266897364087,-0.5875341433491008,-0.004388301996433562,-0.09905211256134216,-0.19132999709194146,0.952516906532544,0.4952875354227073,0.3660421392861906,0.1794332234258065,-0.1974023662636346,-0.5625033734721884,0.00415575018556667,-2.602721097838055,0.5051939486867477,-0.06719794127178305,-0.08475379568355486,0.1810652898079795,1.3389871270834313,0.3902508058465813,-0.09409261243275806,0.2684795300394434,0.05205174943061438,-0.5575752980426852,0.143966817535742,-0.027591120235345407,-1.9674116108262047,-0.7936807361325307,0.15457614735085343,-4.186716243093289,-0.11540817542303171,-0.39629441108285907,0.9005899564770524,2.117045736109329,-0.7520728375014967,-0.051198669597647184,-0.1777923521297823,-0.05261179853286696,-0.5239483944637451,0.8272772111981054,0.04175679998941547,-0.05143539236721084,0.03800796992517481,0.1023983745874844,0.02141544904439974,-0.5273273724197262,0.1108546001042003,0.02368308052377413,-0.048547504478941246,-0.38071731141785087,2.619516112153562,0.4274538376593005,-0.770980038383585,-0.0003937758507218955,-0.465386675532863,-0.2332638037574406,0.1968870179968183,0.030700648919342603,-1.2187375838108014,0.062210048552244206,0.08927987586491425,0.11160149542327898,-0.9553811011120482,0.4207160611663336,-0.3657688698907795,-0.2384054923452704,0.41743250521792546,-0.6494304989295129,-0.08519944759186965,0.27482374014046446,0.008148234062655175,-1.2356387414476622,-1.3078264726629187,0.19224415306887174,-1.8394135068261772,0.3581897947803881,1.2231876069628351,0.3229510611232838,0.12849707460993853,0.4301775701387946,1.4959768322617093,-0.19177090450126089,-0.040295097833173754,-0.12908970461673366,0.01052465772525408,-0.34489983263414564,-1.5496398268405445,0.163070167559312,-0.13450087081838577,0.43052222482358626,0.07794606897826278,-0.08728104324585788,-0.07321716886034563,0.9139779354538665,-0.15973212308831805,-0.30461088515634005,0.6382961795475687,-0.006343339823960938,0.3617245420206872,-0.6525171666075752,4.223721677800825,0.19867713708503998,0.23645673832628808,2.948581402187514,-0.0980018683876699,-0.03556725678055556,-0.04703453381055431,-0.3791830738225989,0.131505983619944,0.4432831866042604,-0.11172366702177773,-0.024330255560663417,0.3011631105347211,-0.060323041131689535,4.932490651319344,-0.7106201213695839,-2.8348269546859464,-0.2063490912895255,-0.07465271332768032,-1.1667810437561343,0.36999113533332245,-0.05516959765564341,0.5498778587859744,-0.09893299846086046,-0.04823943134237818,-1.5981841587039847,-0.10758222515053323,0.09004671650293901,0.41411994390061463,-0.5650423653621726,-2.647689394490072,-0.06377529912132446,-0.05702212665424872,-0.2077633837386796,0.5299869287937756,-2.8766571309396887,-0.20628115031702177,-0.18127475147828231,0.1768116502595555,-0.06315971515963843,0.8224688213575057,-0.45955037639634155,-0.10421008535024512,0.3191044768460522,0.5652934212803782,-1.3835563271773665,-0.1648536185365305,-1.419126321323896,-0.0705049794970463,-0.7665608072273677,0.05200416652686968,-1.8616335424802692,0.571020242305636,-0.04791105423958487,-0.25832333548652636,0.04359082614275087,-0.39767166028053863,-0.853130344652572,2.0241267033585166,-0.46878108719425765,-0.45487868715043883,-0.18230160133225884,-0.37868661894667327,-0.3373406369428629,-1.1096319519052538,1.3269173724143075,0.1871194215513852,0.24475601478709996,-0.05684534952300924,0.6103322944012328,-0.07375734030474602,0.2809803978813041,-0.11970328266272784,-0.03827315103213305,-0.8165935267853385,-0.22695089773391663,-0.002036537730160316,-0.039273974091632004,-3.137001680572224,-0.29074215321774804,-0.036966381341971714,-1.0106728635375661,-0.006719266733226777,-0.07009123549350048,-0.578226643382607,0.6738426823408291,0.2218457991852462,-0.6885112111786645,-0.08888454387827997,0.04603211485567033,0.3955128638598944,0.016831188866030147,0.32309363090254156,-0.025347420628827264,-1.9282290257858195,-0.8056713439468762,3.8052419077050224,-0.052845980823123355,-0.056622750194320504,0.3586484443587188,0.37406211360425495,0.03687511976493745,-0.34560959945006403,-0.04517396578970472,0.9503517559818887,-0.38360416720484425,0.36059398726641784,0.559525051229632,0.5102913068708259,-0.26656137575368727,0.16674995364197434,-0.4484839321538412,-0.33294983314775,0.7395669004064299,0.40764106829818303,3.7781262797042268,-3.111114035496572,-0.04427457574666105,-0.542647984468958,-0.03650000629350026,0.03231769253840672,0.062371868461374595,-0.031406586107215445,-2.1704177000330684,0.23767487553278535,-0.14452225727667872,0.16891011413933874,-2.311120284377162,-0.05888540253514409,5.822279805140892,0.7293955831094138,0.34686043701716435,-0.023309254502778678,0.1917229387974929,-3.503336559136877,-0.17237249984389932,-0.30700331627724603,-0.428745096973656,-0.029512284801218824,-0.07299322467984604,0.5890438161973367,0.3385391015130413,-0.14666376056976416,-0.5314911676482862,0.4062115694272994,-0.16482393917770832,0.3115296583025531,0.003702209513749974,-0.5313437945182008,-0.19456672045396592,0.3381910495011405,-0.5131884807827256,-0.08968478683343516,-0.16795116203897376,-0.23657431997851597,0.37998618192719574,-2.4833751541917857,0.4412717691174362,-0.24998424878507264,0.42228097362321004,-0.5825442458399,0.0745738638084298,0.09758954315581314,0.6368762902118678,0.1207826140107372,-1.3910086525026941,0.05777421225023083,0.1885614975296781,-1.5934765477140498,-0.7647564371986034,-0.00011904485342158085,0.3269647595143831,0.4232158554626584,1.449364260787079,1.189944436263506,0.3319225648759148,0.5706601609937927,-0.3814996389910303,0.8425255458015938,0.02572580102462671,0.29054077354755686,0.6878889509405584,0.017349756901360723,-0.4274279951804343,0.6792802200122406,0.02496358084226767,0.1452708869580386,-0.016746153317313047,0.1116799914965284,0.005077690017573712,0.007872612660933523,-0.004111205943077106,0.2653794197227874,-0.08800258643426694,0.43049165699844255,0.005789142583337619,0.16953713352640154,0.008659581941411608,0.08701321806900165,0.006202274281447986,0.017949754494693628,0.02772205187955877,-0.053435012984794056,-0.0320826211492656,-0.1124923817174494,0.8064270696911139,0.11078760329114268,-0.22955446572754412,-0.15543937743831082,-0.9308652844739113,-1.3035671060671048,0.06774157050153577,-0.3752287609149582,0.025635143630987053,0.31260954632945714,-1.562643022166424,0.0976285000616794,0.1399750479215941,-0.37311976101245464,-0.26922891591420955,0.8430980918442833,0.04722367857884118,-1.1063029607003931,0.5037426852926149,-0.06777680939939539,-0.7221962298504776,0.2247433355589725,-0.09242494727006167,-0.01211653539489257,-0.02726163181716122,1.2331311833372058,0.22943687570676116,-0.2223689467148996,-0.2693843548404962,-0.5866765288855249,0.7512581724559158,-0.3216857727322628,0.5772604681934429,-0.36392276554450337,-0.3745535330299525,0.015772312567882044,-0.41782966767640367,0.6505253029193866,-0.1319660178196768,0.01845647229629641,0.20753907940067928,0.011289554555109714,-0.4785130963766236,0.09875872172473839,0.0009816396711999269,0.12173915278187587,0.448537864045828,-0.5655930546979274,1.068369203737511,0.3477944925224737,0.7971833727135765,-0.01974925176348796,-0.6510824746992584,-0.06837974193344092,0.056213907906939586,-0.10195253531773735,0.2597401488089695,-1.1676160950108734,0.2652495785980776,-0.26554917212657797,-1.585927203130547,-0.2045496040841904,0.24511611139539483,0.04191591131065029,-0.01272887184925565,1.3903736934196607,-0.1983799821056326,0.04598356836354328,0.12607437969649024,-0.18768038849853796,0.1451318491994045,2.0000519953397995,-0.10489166157220514,-0.09003184378194884,1.6382870911703555,-1.9517376219405211,0.6778367928252679,0.15704305579656117,0.07467689129178695,-0.17153584435674363,-0.7854290719578841,-1.1772756678664678,-0.07969232236924068,0.8691567342735719,-1.2608318060254955,-0.672392311110518,-0.5127770855232875,0.2852816713539177,-0.48370654689374515,0.09151257413069319,-0.10764918284737779,-0.23412116678269523,0.3364992954207087,3.5174796073349768,-0.2785633689704821,-0.15991088691678215,0.24867375706332884,1.1008518952523332,0.10305173151454339,-0.4505142080096724,-0.08968005982478565,-0.9060869148677818,1.2984069292286886,0.9155786185818116,0.7929514469166734,-0.17367741301711784,-0.0713212979028301,0.17828091855077233,-0.15796561418600719,1.098271003218411,-0.0005683899038769215,0.7721640799837961,-0.2146155696877918,0.07456045990664172,0.31500240262399243,-0.148061960242976,0.07144690027002142,0.482904887874845,-0.11515481844140336,0.7323527756573921,-0.2721515771073831,1.279964256990174,-0.23978812336572272,-0.09930253714064946,0.07297126037874645,0.005419992668767827,-0.031809126415944494,-0.28311492937873156,-0.24512299839477011,-0.5069115442895179,-0.21833020316432492,0.40239659652956855,-2.947196526219258,0.7936482127221786,-0.034254116981576536,-4.426881420067402,1.070642983743292,-0.005332958053659683,-1.43700803333235,0.8442630635795006,0.2144161923409678,1.2825468225839265,-1.5758458766618986,0.48865692046666925,-0.6928126081753615,0.8438916492716605,0.693958918588136,-0.16272996695692032,0.16024265348149436,-1.058136662499029,0.04790841692765611,0.7431459137376466,0.29878288320073526,0.015115879809191055,0.19613703808582694,1.0255243751312868,-0.2828678791358565,0.5271502881518418,1.10566040162219,-0.17879283519547126,0.19300761700820165,0.6173986366316794,0.13126490133000907,0.0828812340893978,0.43811916280945024,0.11053624479386903,-0.28395782968695293,0.58049804681685,1.0935056540685986,-1.5048159543484216,-0.20514719775240195,0.02651135906895267,-2.197016253869944,0.04334087127498595,0.14378883955829447,-0.19211869266789303,0.004023256315300289,-1.812735822891997,-0.4784326871095612,0.13995789339552292,0.010832944738991023,-0.6665662078720725,-0.030736406919989762,-0.42597567714440016,0.4179687683698045,-0.003373608973259368,-2.9080222247950416,-0.14039956748662605,2.0580177013456495,0.5233862727711366,-1.047596088938125,0.01880855959666818,0.043086861200854344,-0.016415582126296697,1.9009968561907276,0.12457176610354541,-0.03751375007355853,0.9976010412038772,0.5600083726120207,1.4328238149504753,-0.23877070649499274,0.03840049653503891,0.012735644151585056,0.0896124812845747,0.1200665152249545,0.03395936212275155,-1.1212551227219967,1.6734746349606164,0.10962237851151942,0.06958226870502454,-0.5501091318275978,-0.042815617472752365,-0.188549481361757,2.04578585731789,0.002196108147399911,-0.1446182752155352,-0.004531377813757185,0.07359719469588795,0.1361031684119696,0.027705350639564735,-0.1413624041801471,0.11850868827146625,1.0566880678756283,0.6401530356014816,0.43330267982143483,-0.8041264888749096,-0.9831063736596731,1.0526622374930972,-0.3815243678881061,0.3238659770384212,-0.10075903283399239,-0.040384932647105416,-0.44817170003648016,-0.7253780050246131,0.05653680922259435,-1.0856799563687125,-0.27131910110109464,0.21103081026286508,-0.3831159634154577,-0.06595982385022937,0.5736974817183855,0.24221685615767377,-0.2587326191236553,-0.09873932354488664,0.10937639629917816,-1.421194822678828,0.014391223296536243,0.031593677382966756,0.08678753848630814,-0.8967753748535746,-0.21726676069315468,-0.011732878323200418,-0.2215205417867495,0.02218722215777386,0.3742894743832048,-2.10324186336075,0.009507734622083187,-0.23503659961611625,-0.015484221739928269,-0.09461992684150017,0.8825763026608868,2.2009433217583836,0.09445462851449397,2.30177882669137,-0.20620491100867022,-0.1793120968708676,-1.4052356778792314,-0.07892247073168394,0.7028547813905107,-0.048916860080363146,0.4600591985664441,0.6787129903575382,-0.39681822102443703,0.04098214935581768,-0.07367949066905351,0.07685143057092682,-0.06298494228381474,-0.014773557535976265,-0.0334207070624842,-0.08187278504601125,0.1088895391343521,-0.14486900005899037,0.024575984981337524,0.036046845796134,0.659156718943427,0.1916157532194924,0.2646867168667005,-1.007904807206524,0.03973227170619245,0.5048479750919107,-0.7206973305045943,0.0010849423101158566,-0.3330930281908669,-0.08965043859326209,0.10774451756427056,-0.44783416723818137,0.9457936101950306,-0.3177720078287258,-0.4360736608513162,-0.5171117137805904,-0.4021308427897596,0.1280484722853891,0.3220066575176153,0.27744283852224194,-0.040801354521399276,-0.20593129246296668,0.4490827423227161,0.0433722106741728,-2.8013252896467153,-0.04404556196142335,-2.0688248546475254,0.012669937967151455,0.14519431231979774,0.04964975705177046,0.10764671769519928,1.427593779289163,0.37090684584359407,-0.3827161511035007,-0.43554353907006843,-0.27072406303973773,-0.07145163483938717,-0.344029583831051,0.008729736245702878,-0.07852182063513856,-0.07473654905453611,0.03437703079066895,0.500668788433477,-1.0637367849627182,-0.027138119828563317,-0.3276421652464503,-3.636349123579991,0.7542657312436685,0.46732456142648743,0.011493645669860705,-0.0694600885798899,1.2375584860097237,0.022564497606370595,-0.11546164656313047,-0.042357593333397704,1.1401633786855105,-0.029244320778528635,0.728780905471803,1.042221272667163,-0.8974976718195916,-2.7785686368326203,-0.11388991962855526,1.2543337915938098,0.09510251455545515,-0.7811284301274831,-0.22743292924467695,-3.1204195472768927,2.6020325792880286,0.18287926790910905,-0.11091606405403716,0.004609364095227384,-0.8875209778530008,0.20599271182643986,-0.4958262575772727,0.12228566316741361,0.027200950924793448,-0.23501131694111133,-0.03541115199346676,-0.647285412844233,0.566332490574395,0.05115276652574735,4.4392558586946125,-0.2285942570625533,0.13791337846699733,-0.011536267254733562,0.3424320088177524,1.8588705119809663,0.08113893169588769,-0.00989258585090745,-0.47959863905118255,-0.16204973062931596,-1.9980878953990084,0.09590275197189801,0.5400951668360795,-0.929285403267543,1.0017229192686619,-2.029494906885842,0.47220489291009526,0.7713417472552494,0.13759015122081097,0.8302697240153579,-0.8516135772258365,-0.1892884224970032,-0.7671023642099488,-0.09294058607051355,0.025221312246502096,2.2644272736457567,0.327935929429142,-0.2284692868393606,-0.461490070538731,0.06217336115856547,-0.007323096917392205,0.2126143749023918,-4.784108343402832,-0.3978738480440967,-0.995447932375981,-0.47392452930796064,0.004211366000683157,-0.6338235711743637,-0.5148297468309884,-0.06737660154247314,1.2107635060778554,0.1716984447213181,0.020702438241122827,-3.157302175781936,-3.6634851225341762,0.07003975555067413,-0.2624938616910703,0.16231628650245475,-0.006739314414102815,0.6998150787031086,0.18267823226514757,0.2535366716054361,0.6434818180371699,-0.060821133729579625,0.5288474853584413,0.018478299536719665,0.2895597655902462,0.2736314207501938,-0.10757161925163611,-0.8168770143223725,0.46886309327308706,-0.20213413299550517,-1.471872567868644,1.2572181046941544,-0.5936773315156673,1.1042249252090162,0.18154825283609158,-3.5786819879167395,-0.1164713993523145,0.3679024252900304,0.3939116216471481,2.4965423203662884,0.26645619340547516,-0.04711202163592069,-0.08143234494748608,1.0246970259426451,1.438996582925759,-0.24675436607246212,-0.40289623110773287,-0.7820042057456712,0.6191182582970798,0.5791696561205338,0.10315802807104785,-0.1582322016597709,-0.07317513431996432,0.0615793616672464,1.04813016984419,-0.2446346461043151,1.5644926779373147,0.40903388087222914,2.0732679316811833,0.0649514577206055,1.0515497700975025,0.04571397650296131,-0.0659635390127115,0.08505376217540166,0.2557574644352738,-0.25660292176577953,0.008033284133205481,-0.05756673309415766,-1.0192661281648123,-0.29385580757067215,0.03538443107152592,-0.1432118473082806,-0.24370479955693947,-0.6826249937889538,-0.22917967652044732,-1.2296030547647239,0.9112201407419205,0.34287788485436427,1.677451155265777,-0.6299301562471332,0.08951811194089983,0.05550154899872286,-0.20824932200603097,0.03723658801019771,-0.0208896660554046,0.4105358269050475,-0.8901447420393066,-0.051792403598350654,0.05098905777064711,0.25030408502641094,0.23165188893459102,0.6487609511501474,0.5757521295039811,1.56066209976691,0.180844447461441,0.0865991927321378,0.018080853897093106,-0.9773116195811129,0.08598299939599412,-0.43307447860373666,0.46645966799429545,-2.8192696403408966,-0.8966072180331633,-0.6716971207440223,-0.08525204670699926,1.3317395926312683,0.6838106504052118,-1.1343778440598424,-0.9105498525391775,-0.08618180550587369,0.16579699959702177,0.2140289534746782,0.00405437593788948,-0.5526638024515479,-0.6011993416261299,-0.5983492312277986,0.46676636568319396,0.1627434891006074,-0.37407565611883903,0.10283963329860928,-0.684173385387933,0.16471798994277004,-0.2652987989356698,-0.14577690286934886,-0.12879440212346033,-1.2444797815456046,-0.09028466041681726,-0.6750708037674126,-0.16306829557463196,0.09245769189749238,-0.35994896594589926,-4.562514771761562,0.009350267990096653,0.36696137163444603,-2.790713303623965,0.10815129494605351,-0.04025916773672442,0.20293128665232407,-0.25739505074000407,-2.564842051591588,-0.1955844929579141,-0.16605607066491995,0.24729667576423853,1.2321519629988424,-0.02316573502194261,0.3272676103835896,-0.6035842776915237,0.0846092261816045,-0.5180124437353558,0.07735887929478416,0.06953004298011171,0.34692985850985697,0.28405208381995495,-1.0375677469723783,-0.37253859972294007,3.2151584401211273,-0.045274027858447814,-0.40991571115486897,-0.1874964213466953,0.09498218715690294,0.02289146969352307,-0.4060175283141269,-0.5474580024473003,0.007302053546980581,-0.0943849806037831,-0.3104139909409583,-0.004893781672021119,0.5002558410923221,0.007641203594499778,-0.056252057201253945,1.0993588296397279,-5.335030480386084,-0.042732067970644376,-0.01950180745893011,2.6491173650442907,-0.37191115663744706,-0.8646762317315315,0.16592355109208434,0.7512321512237313,1.3205927510927105,-0.2676825334959785,-0.5792304857710636,-1.5049930110342282,2.441203033809089,-0.5143816711875725,0.02261381057718449,-1.3173202187467323,-0.39843184114277413,-0.029009200485178608,2.0718467579457744,0.3069049556479127,-0.18468121610273439,-3.079871711990131,-4.29470982682887,0.9544481009847438,0.3319765727389093,-0.24561975119280768,0.09187197629552805,0.04618877969111054,-1.0567152333717633,1.6688233928535638,-0.004189318774416271,0.022392332066902398,0.099157016908987,-0.001517717955587735,-0.15275880624470833,0.10097232879428077,-0.43675828305279324,-0.3303439603565362,-0.0405551789243201,2.3526568339182656,0.019703933904853296,-0.43954810133085837,-0.39454781075526507,1.2141564951428823,0.7333670695965719,-0.1726514426249193,-0.22966283315379313,-0.27585037103732635,-0.11105093477543276,-0.13167185916367793,0.04805619776109977,0.6844367604111561,-0.3022022883155748,-0.5668532520223509,-0.04592296255876945,0.28297321025623495,0.5128671767358074,0.22573840366183737,-1.3646713654984346,-0.40795064623287375,-0.8730658398617042,1.3603916058729473,-0.23470516364141103,-0.5564414051498036,0.3782559263343888,-0.05152447939846432,0.5199945713333821,0.04154727656213696,0.1142914492545115,1.0711462698200158,-0.13791310448764135,0.8593936774320438,0.2634660655166921,6.457363925100942,0.09384518377421462,-2.224615980991022,-0.3016686147468927,0.011695094315665922,1.6082008526202352,0.04872411662836839,-0.41865026664211064,-0.007299002085959906,0.29260172361174824,-0.6855082855081315,-0.2896070997624444,0.7143330301307369,0.12943809299577935,-0.48675549611487917,0.8986451319876266,0.516480787787941,0.07065441509851461,-0.10710834050416684,-0.01629425739226531,0.19931506252204886,-0.3666242273740507,-0.08471309713766134,1.5821873054160156,0.31933394878690186,0.6149652546919455,-0.4857839178141044,0.05693538279101081,-0.15267015747329402,-0.3289248288034029,-0.020479170358411878,-0.21797417816563144,-0.8266447872392928,-0.3872256366843414,0.6473923091592536,-0.3282696639585762,-0.014887517144508792,0.21897898159121074,-0.5200730554319182,-1.0747255511410072,0.15360994982110218,-2.9623138034890846,1.0003984010916505,0.37557013535513045,-0.8323230824945819,-0.25501871214241145,-0.8009700414787023,-0.8065135664682849,-0.33868621933527027,-0.40738212171076155,-0.24335297731427538,0.04903098747815352,-0.049595957255722585,0.36741788097040856,1.7203414010117057,-0.11644884663954952,-1.7190802845400082,-0.2545826849668265,0.0004657704104837173,-0.479148623686706,-0.18456276181684275,0.011599781159106417,1.0646963835383467,-0.8385804443653345,-0.3381123669561104,-0.5372877942894125,-0.18940880420354178,-1.4271152711035837,0.29320474341784647,-0.0109267121784351,-0.5746744840364377,0.4036215092786209,0.43006339584172304,-0.9084524785775155,-0.00046191885737171347,-1.2529956651774634,-0.9315955829608603,-0.340401846096505,-0.21943693222460128,0.0052061834391161285,1.1381593993811376,-0.2730409413194146,-0.09726506915746302,0.6608482218654094,0.28129057645779865,0.2826874791386836,-0.5011914275909474,0.02165118715519171,2.0399508744884147,-1.386181262169093,0.6561068675880687,0.03516459394501861,-0.2630465103371736,1.0800553225518024,0.7327035854176241,0.015020760512309021,-0.9434125944090833,-0.3246462140074489,0.03887586213184636,-0.9945592059519189,0.0013959926752370366,-0.06282445801695516,0.5245234918535532,0.14223164339809738,-0.2780991537165155,0.07283258088066215,0.15450082340722052,0.05054217598736747,-0.6533074714823356,-0.06597515197931757,-0.17149719798712523,-0.159375309778945,0.7799293689267531,-0.11836796679157047,1.0929416919443273,0.28562103485180207,0.13076831462232233,0.19652841716851674,0.11989387608638591,0.8328296024931626,-0.28774370571022323,-0.08634801566765299,-0.8203965213761334,-0.2980237088707877,-0.22579280449671804,-0.1653466802040123,0.0019704804381231473,0.06218958210530861,0.04978027126520593,-0.10438930026624098,-0.788483499469038,0.20281747179065682,-4.642849281751246,-0.032050767684820645,0.43924482279159877,-0.07687281044400955,-0.25455830794376444,-0.06712760002634348,-1.5615497596710517,-0.19425380638018797,-0.11116452741545169,0.1658093338868996,-0.3755443519443136,-0.02564610299601375,2.6640792006523233,-1.0612368442235132,0.9464733079395847,0.038012564194187,0.19323226400702578,2.3460797322889273,1.7642824610917585,0.04505167934417111,-0.1839552658848681,-0.12865067786114023,0.5100581684023628,-0.009153667400513505,-1.48979004336484,0.2711584290328402,-1.8902904487890357,0.279012921255204,0.1528099533882511,0.58898069206016,0.27535018617402346,-0.13699557262392928,0.7317253229438893,-0.08441320869634783,0.4922982136703126,0.023997454594706712,-0.39063358990336167,6.174393711624642,-0.4397423042731021,0.038186841566820055,1.6889906688477658,0.259348985675873,0.021751173555568354,-0.8968490349111358,1.0772224162919206,0.1740774111434238,-0.024776963298284962,0.17209135605116624,-0.32385065625085924,2.4311350364146214,-0.09146477907347618,-0.5455304734099737,-0.5339628081053345,0.20921455307229112,-0.025771485857675833,0.40361838370280695,0.13767040419547857,0.8120828714119668,0.6120388145275598,0.025082088417426457,-0.9911975042684817,0.0073075557288064035,0.12319430449359181,-0.039568371390720294,0.9627449606025335,0.21956168662090395,-0.9560718594616203,-0.11919486661767718,-0.6366976046889886,-0.13529769590293442,-0.5799680115073381,-0.13871019397013443,0.039323462209453826,-0.08668464947154692,-0.20637445274574032,-1.2341516551000902,1.4255855868227993,-0.05849857912790534,1.350995450639911,-0.07464609393811127,0.06751304543761995,0.6372906943713968,0.2759717189571007,-0.34363130351363314,-0.061039339827788225,0.3535703715099479,0.004238201131595807,0.8341856405707156,-0.15429174674614063,0.12445474312399607,0.9631338719044074,0.41682472124694225,-1.6940570658548577,0.2682230689181471,0.047060572961633775,-0.40117236429653236,0.013905800236472858,-0.6630714403520774,1.6761711024496924,-0.5189048635942672,-0.09234042212040687,-0.5067434242892037,0.009083777471183439,0.27644133551894173,-0.2577678491957837,-0.1336470380303799,-0.40332212696749026,-0.06158692258317672,-1.1120907734763077,-0.21340363403608445,-1.356929221140395,-0.2199291955453403,-0.2690102391378969,0.024326326352572817,1.8992347799586307,-0.8095416994764296,-0.12310681346467921,0.0606622725490596,2.190104616167368,-0.027148939368977155,0.15677404907087825,-0.03149048443866345,-0.10438009648021657,1.4363103772606765,0.9397789678908971,-0.25069554458190724,-0.7609596217093717,-0.29647586112994767,1.544786646558946,-0.78927833369127,-0.22586328951393986,0.12624339085135974,0.19709969657654128,0.5643150527369637,1.348458130725114,-1.8250018926786762,0.48100548910391655,-2.6679882882642008,-0.2131170736221606,0.21158804316551283,1.263851566136717,-0.3105001442385023,-3.3206970654048544,-0.13363646301288426,-0.024334264688796292,0.0036999886821844786,-0.719661860404856,0.09307332950633929,0.09448959377991584,-0.6469566993324039,-0.007910510198228426,-0.6511752455656968,-0.5993779542533498,0.8067080755187649,-0.6641104827589828,-1.6548593066623416,0.07688019345408535,-0.15746164479221023,-0.512759238714299,0.15060658343582412,-0.17739979563475994,0.13777995843736698,-0.4510206677140503,0.047960181117541655,-0.44253670294667397,0.037586657789483814,0.04027755215990775,0.1458161357516897,0.09366134334775515,0.983128962823097,-0.049393766343212096,0.13902854511646393,-0.21759827063355494,-0.4732552473093751,0.5122462949460439,-0.22495728223996983,0.3305773866709747,0.02283826706662191,0.857548923795527,1.9475491803821363,1.9581365376178452,-0.8802423537674144,-0.9038008505007693,1.7813470346185427,0.20577187300072952,-0.4745382401480014,0.09900076989803537,2.021793440363304,-0.2787623382548418,-0.08788479767922079,0.6799532980796386,-0.08800249126178872,0.03669947346299712,6.018120246584229,0.8200970273982705,0.7222748606153534,2.4898686695393106,-0.7116911918284049,-0.5530279387833777,-1.1480197568415191,-0.06551125838045918,-0.9781641650679745,-0.10639037752000056,2.7631120430632823,0.2865110692317944,-0.3036119007410167,-0.332223333813253,0.016117192945465698,0.001858334008935085,-0.31401814183881616,-0.49492075488084303,0.23848397892711448,-0.26056125823751425,0.01121060131521634,0.27658187968007325,-0.2015111942384669,0.16835286015305065,1.1639024118727368,-0.07018255430710262,0.05363539732807532,0.09811252650169085,-0.33487576144543246,-1.2838665767272888,0.15762283085644616,0.15850229553844902,-0.3757581061642976,-0.6074038576516493,-0.3798174571890105,0.03298540007003269,-0.5952455994913074,-0.6207146191632554,0.0011062074827888956,-0.06671846879950673,1.1170766020452707,0.5781990198704309,-0.45534446136907386,0.08913948406349383,0.27517470399704874,-3.1161126434156103,0.26575358502315477,-0.272289111443791,0.21383995664889158,-0.19056030915958835,0.3049966035258009,-0.10925712509270592,-0.515887733436669,0.23087827066965314,0.04602411865888579,-1.1031957402470178,0.5476814634332382,2.6649448595397396,-0.07083278223496044,0.1660485641342156,-0.2238667551481933,0.5602390282510677,0.018944802573578296,0.18954362305095138,0.367800437731664,-0.8008885746335378,0.5931824486431745,0.33746822079523486,0.501711356873066,0.8336077858128018,0.24650564934953775,0.36290413726007165,-0.1346418933327802,-1.9194174894063398,-0.251925596632306,-0.32353425015900894,-0.8943761059641749,1.4494465101737433,0.28066314309710133,0.018860694205451087,-2.5778485714678236,0.5242567213299741,-0.33870522295064065,-0.08699587726516374,-0.018889138812287883,0.204535626550958,0.07371573909499275,0.8857848562424482,-0.04611592114524068,0.03020081891192874,0.08263721693063125,0.15771494288023893,-0.13680295774079165,0.34808809424343323,0.25454528007795924,-0.40253433093117036,-0.9594387362186492,-0.027761478551847074,0.4251013977302815,-5.202425466084054,0.6020254370499806,-0.47201067593732454,-0.057597831870961624,0.009522208232072104,-1.0634448723180183,0.6085962748009023,0.2871290317014679,0.026188079376014955,-0.47624248145743153,0.08114467857406488,0.7140979992827403,0.01941430031436119,0.04299301016841758,-0.09059483889641917,0.2169906850815566,0.42268567186795813,0.35526191125106693,0.27738261917367096,-0.7067246509312867,-0.00164131166759782,-0.026735361694723462,0.7911308180784008,0.5369308126384559,0.7823441043381205,0.7609764822651549,0.5829322394432249,-0.022425990155081166,0.6569641345736703,-0.04438532389396971,-0.7409833072957387,-0.6633310212820563,0.12897215068289472,0.7491173151888285,0.0018054737433255668,-0.48764970988719036,-0.35228738631155715,0.8660609321649635,-0.39830140928197144,-1.2458302655151243,-0.18504893620370458,0.07873989179952816,0.47277512222627555,0.10428877966163956,1.1280241663309305,4.199581831205097,2.4456534326989967,0.025127446295612702,-0.28567981616832355,-0.2456245963584378,-1.6709649558422193,-0.008206747397069331,0.05209821660169789,-1.638088826073405,0.05043998464709689,-4.797879494329385,-0.5754335817808892,0.02003079093936724,-0.011464362837810544,-0.1826863251103877,2.4086418508395258,-0.5063334279468905,-0.4837857460971633,0.8550188372003026,0.07243410129062326,0.19793826160240882,0.07314823469083963,2.9363793436845147,-0.9716887165181066,0.20489934572405397,-0.28868395982321765,-0.22833010572998028,-0.0926739025911467,0.09393922318655666,0.10673119942167246,-0.6482481238795459,0.24093601853858315,-1.1491807666572789,-2.587276253782365,-0.17184851789271302,-0.04723583498661379,0.01736412121775083,0.0026697311181279656,-0.3786756071213962,0.1757574840793388,0.12095668594667304,0.11643524066117562,-0.01991937716013482,-0.01083005183609193,0.3551451863120127,2.081471817062978,0.005660522120482166,-1.291290832376169,-0.013595566300561938,0.0732994869911811,0.8895474348148955,-0.07406600296226108,-0.16777697043158213,0.6046349241019193,0.9180034241635197,0.01440844368140873,-0.48130088077753985,0.26110208853620137,-0.4447330262741033,0.1824467589443701,0.07515397292659036,0.029316491426408856,-1.2296040968416786,3.2372219689979045,0.27054374952387467,-0.3530759549937703,5.387806542372111,0.29241798840347516,-0.11277941458758285,1.007323854996007,-0.19559682550438104,-0.06201514297088348,-1.533440548566979,-0.7614851523496027,-0.297688348130786,0.40705125619666765,0.11623712375113886,0.6065309550777552,0.0485087100770756,0.19634162908573302,0.4114045937257937,0.19191495432926334,-0.2686955717308899,0.13361959640194432,0.24356886286765622,-0.04284207707023597,-0.31530971374893296,0.6991743591865514,-0.6824837699638079,-0.7715267579970396,-0.04016730779113287,-0.057218405154778086,0.14447179168878474,-1.823623218564271,0.01422642933890088,-0.31801909829432246,1.5866922107476837,0.03161239301413509,0.28152704085923336,0.024883251057730687,-0.17056505978836814,-1.9417432707207516,-0.16102347785204457,-0.0022079418647531716,1.4568477403685403,-0.18169234265578074,0.3334282336823054,-0.08966885591105574,-2.9536224248290384,0.011848601400040496,0.04701367550233806,-0.03661552925760609,-0.40079935788899834,-0.21142437948090417,0.28707317911854086,-0.22527734671655372,-0.17664946208021626,0.042849691088511055,-0.6829087872209199,-0.24073237814245765,0.0043166398463151566,-0.9072788977949721,-0.2464273201502762,0.41254640471170556,-0.3165969688162071,0.05392968824068583,-0.03479165221044702,-0.13791081254602863,0.27291625693969906,-0.5725703303326335,0.1480208485959717,-0.22755505820304892,-0.5126263596820797,-0.5712791659277091,0.05326872287630822,-0.07218008558850565,-0.0034409977104648075,-0.6305248456581675,0.1201286029210863,0.47148185574033624,0.23243294604841222,-0.949401734489037,-0.02860279706957158,0.24347055950966237,0.9383765568636312,-0.19593168045651754,-0.04028161107733713,-0.920286715867733,0.17080654483386734,0.2135759325859954,-0.48959502230022234,0.19554233905762433,0.3841027379091058,-0.6473560342822227,-0.490305449822599,-0.2839087454834047,-0.03740943241561351,0.07908736018690253,-0.2386437861262234,-0.10137013118490051,-0.0724659190379884,0.08371436761759175,-0.5528885092300996,0.2392831494784733,0.40603396500590727,-0.3576891351348808,-0.20915764126086275,-0.7445956434778216,0.03352668575646642,-1.8216355669279611,-0.058676403157626324,0.2485565935203401,0.0010796886045462634,-0.9685435745816271,0.10560155880467531,2.3086974532945876,0.18289518079578423,0.46211046776287,0.03658018604121738,0.006955568988298082,0.09987303940869902,-1.7569427498521542,0.2900505240768083,1.6900424516004626,0.1181679819852726,-0.07699842836390182,0.19284079528054834,0.028384972428746946,-0.9638805791166525,-0.1802497842068178,0.0177665541185148,0.3998484117781511,-1.1313159650269309,-0.3987179128539295,0.2516004972071994,0.1163542220739463,-0.26833060018533367,1.6449827730914521,-0.6093420223940004,-0.03210076267891335,-0.07846924122535633,0.04919611991531029,-0.12228307586367021,0.09297157543916136,-0.469225983657003,0.19550530000785396,0.005778222123753906,-0.41464745644131057,0.041608858396268114,0.15347713779464736,-0.055648091658296546,-0.9647281922071457,2.962625919338816,-0.12164444727710966,0.38445572721009585,0.000914833004055216,0.831993023052599,0.17011392088297805,1.4698883738716357,-0.038264382083195464,-0.002535984768786846,-0.03478119314164627,-0.4007264191843438,-0.054441583301729435,-0.06989929441233114,-0.19951388904576414,0.2842105178401693,-0.052466202407330485,0.5986693801762671,0.3150197035085239,0.06132206009413599,-0.4217313527273186,-0.3327039775266451,0.30141945207350956,0.02537272008138842,0.1737714731787838,-0.4646983540794656,-0.0960748779339427,-0.14462115595444022,0.03853510237615271,-0.7868013362357468,0.04325795535932086,0.5423155205630579,-0.020301848781077585,-0.5598366592294312,-0.01513938186336801,-0.0013212611444415956,-0.16269335242107055,-0.0045061077009261605,0.272941300422157,0.41516889233613213,0.17154181188722095,-0.13180316415747326,-0.4980232743815583,-0.6872105036022731,0.16701839525201131,0.0076666377910190155,0.461300276448576,0.7678066887690029,-1.2152638230747403,-0.9727672010616438,-0.18546344755473845,0.08581262772601501,-0.16511063907252335,0.34326449686296484,-0.005135398933809791,-0.04125937483372998,0.5449343242309207,-0.11880746138475856,-0.17333791818162658,-0.450770885581649,-0.17614688875875992,-0.10821311803677634,-0.00010399960947233412,0.23519299105335958,0.4399613670267882,-0.39479924255144333,-0.022735222572405466,-0.5189708634003373,0.10294378009477496,-0.10369389196527874,1.4679086815657365,0.5328138092813074,0.018921835677177604,0.33525052301968344,-0.18970407574786252,-0.33587023622723905,0.26888911952410527,0.06304558458558614,-0.37987899469585434,0.27187890548981436,0.9916868079334725,0.11407599063616171,-0.9247778298277908,-0.865113648083308,-1.081395223385643,0.002234641400950102,0.6351345281619427,0.012073844279425526,-0.1395593531582385,0.24782262201923944,1.0905163590532208,-1.7439432455699988,0.21059637848386506,-0.09766049674262454,-0.6604959330040813,-0.035940047819849386,-0.3971665397046296,-0.034357460509329474,-0.3107558538549588,0.08081659147257263,0.23566866493082742,-1.0018586221702677,0.216731567189386,-0.5473008196431081,0.11132144351707025,-0.1603151945480452,0.0062093143206691315,-0.6263523163787347,-0.1859326430848931,2.5458668589164883,1.0132228037062938,-1.9561951601416665,0.17101164513540493,1.2155405440099403,-4.654818336084413,-6.352538564520873,-0.5626863258220022,-1.115280009620988,0.22121961007370997,-0.06092980906402542,0.4787819115963237,-0.3481130869449654,0.25527176118714684,0.2976289207694051,0.8329164878382204,0.6549895229796304,2.1131298417482056,-0.9625280796298168,-0.2995219528413759,0.4509049486364199,1.628285849685332,0.17461639653648783,-0.35850282438630404,-0.08855540341986834,0.9803537968672508,0.5698986834626757,-0.15281640930634602,0.17647150139429943,-0.7443536532693725,0.13246957075809832,-1.5709517742754846,1.7145935775651322,-0.22656981106553942,0.04983175582890221,8.901912707235406,-0.6458489692408612,0.05284073484939993,-0.15095926500364107,-0.1682553556138976,-1.347932383198395,-2.3567827152386456,-0.04776920054905709,-0.15640964501265556,0.2986187565980949,-0.21432945244852333,-0.3707941871837508,-0.6495154246381848,-1.6374351115478207,-0.6292019875054167,-0.21360509424647522,-0.6786789506799682,-0.017360248869028993,-0.034372411632337035,0.4015250893661355,-0.059731709820568794,-0.07314531686719315,-0.9072743604936938,0.1622898765793526,0.4499008921622801,-0.11551803556526576,-0.017114409490975688,0.7580212651769119,0.021523313754401877,-0.08731799555571283,0.0952542674216587,0.2535824099360608,-0.10345339767206907,0.2886735542263207,-0.5547475320385161,-1.6573631740430905,-0.3731382425799998,-1.0545659434410475,0.17905672004387574,0.2509693594704769,-3.4252718309085606,0.3815911349894112,1.3294635776709882,0.26492500538128033,-0.3171153704211431,0.5169935603596959,0.09897489692722417,1.2992607506705152,0.7822887784547756,0.7910646472289772,-0.18505154502428675,0.07518326908728452,-0.5154148707646083,-0.31198170455897617,-1.0502508864835323,-0.34414123500935995,0.19118908490512213,-0.03369567532237779,-0.4280187912459191,-0.29972233080454697,0.10748866631681177,0.07132661970184284,1.3067023850568562,0.001576907468051496,-0.3031031806958609,-0.22758172390769715,0.125557475508727,-0.6102429747801501,-0.2795249709376995,1.099191266431257,-0.6370613891175706,0.6809082724547729,1.6941545187096354,-0.01901866276740018,0.07335674375776985,-0.023924176154349292,-0.04027985733155984,0.07056507329721978,0.1648175521403343,1.153529271238695,-0.8091035757483657,0.0023460754380520035,0.11408875421619079,0.5052651404519609,-0.11931867598658148,2.0464786810994267,1.0936508127576927,-1.6399616844278924,0.6952036605518916,-2.0847315410562772,0.014736381730583987,0.6523123873015227,0.7897896102434383,-1.3062786010295764,0.10296943408661241,-0.03899267877564087,-0.003735577275726465,-0.07265047047585717,-0.4162483256826133,-0.02956775248187028,-0.4867733888784333,-0.2508181168372683,-0.21755481946647223,0.0978472894112115,0.44471684249645754,-0.18266488894482683,-0.460252446071643,0.38808864910782637,-0.17984755879236394,0.7309252634934594,-0.9209096062862147,0.5357553954830022,-0.624118785341324,0.22039685178716184,-0.048222490826025255,3.658616125057319,-0.9894517529020274,-0.04686654921984404,0.26740400156936134,-0.2160203138341842,0.28212306644887625,0.002362175068394789,-0.09248187491861028,0.024111917867451444,-0.7568576669007957,0.06607080149643046,0.6372008370969539,0.852359954822418,-0.10033088238985867,0.6756700782240298,1.0271544166401847,-0.020518413842234674,0.8036101724778089,-0.02873173825034137,0.3065000291758151,0.6060935836777368,-0.2659791581455616,-0.22602513495258583,0.6671352353357779,1.771181256364225,1.2970783039125309,0.1992014215319536,-0.5176284408073654,-0.6525183167029373,-0.3147435013474931,1.7203096602312773,-0.12609234955907977,-5.6184944709451266,-0.11270375873763805,0.04324362578551328,0.033187120579704694,0.4406695330906249,-0.27935311732090556,-1.8006229048863684,-0.022649503092026523,-0.03919657410359296,-0.016220583336376004,-0.2539841997916456,-0.38169362392662237,0.09110489019042545,0.18049294059176754,0.9125729228181029,-0.053540218679735664,-0.07651471341860146,-0.07639372910769487,0.020491341725437703,-0.045772753934975846,0.04454766487975823,-0.5231839449406568,1.4857857572728628,0.15007447179500735,0.16448347675208427,-0.04413385354043434,-0.30352096469893325,-1.2675094961130033,-0.625990030591384,0.044204715063801026,-0.2080759334738518,-0.11367014610171504,0.5029571876980405,0.028078158510447076,-0.13366163134615847,0.03780079837322286,0.7276997412050012,2.036889658465848,2.2959229228307394,1.1266562269922433,-0.23580723443933507,-1.1229625590480035,0.7627176636317129,2.8168313212484737,-0.012669274511905354,-0.11430685025320797,0.14325652235603795,-1.4119708780774392,-0.46156412773499095,0.08711005934453069,0.24138739087026675,-0.5863819357926929,0.06670581578223117,0.6825644164745658,-0.35093123115816555,0.7806561632757747,-0.9125774783991987,1.878402074330469,0.08642304510951981,-0.9821866297697838,0.0028870051320295125,0.006585443170982103,-0.24223869510361729,-0.01065093141830128,0.8306565282045654,-0.2818420490911822,0.00960673312915105,0.0018588358191742114,-0.3981206614957948,0.5799594411535319,0.053877343970743584,0.8526462400788066,0.4579977401459729,0.4115405320173613,0.83013044107873,2.4928794210830305,-0.16929426427401462,-2.2817322537706057,0.6124451625999,-3.025319617448625,0.5434341661949504,-1.2412045609337254,0.27074191903276584,-0.3165765696717134,-0.17340421384469681,-0.018635662659516147,-0.7859428099288133,-0.5625863835665769,0.1965686623983686,-0.0986216684835985,0.31952607361302193,0.39004982638707464,-0.04865503763746887,0.044418665097907296,-0.08231029609952713,0.18096608237573833,-0.2215378319383278,0.2548459858864968,-1.2868731873857353,-0.48224753785532304,-0.43323276201047634,-0.22205487229903023,-3.704901030105324,1.3192207910371927,-0.3750582620542884,0.012380729517100198,-0.06803171460760349,-0.24893270069657433,-0.03336942197611239,-0.07449315600412187,0.04378342482323345,-0.28520754587744457,-0.11739676820133509,-0.6516185329573795,-0.15667010049762628,-0.09040163992845784,0.09177564161072638,-0.06379597241189845,0.026051797639272196,0.10083199079366274,0.19710670220146165,0.24842141959509087,0.7361365458437147,0.5594059034342312,0.0868489271470811,-0.031229180241675484,0.15925970188394048,-2.3693369756360627,0.2660023205485815,0.031340760061473835,1.7667528516990203,0.09556314706120529,1.8843530716732306,2.028344321327147,0.0315505308923398,0.015418415681686401,-2.3304892609644963,-1.7978619054547913,-0.09158696773641632,-0.00333716018709916,0.08699941836386167,-0.7711777646740879,-1.3957504672320156,-0.47263830060473877,0.7344506860265839,0.1578280717738817,-0.2960904426145288,-0.2900826077878967,-0.13200437039464877,0.3866295799587937,-0.025030223356150013,-0.10496971898409575,-1.4782820611066114,0.11325708406176992,0.4488107869969424,0.42157912252548263,-0.13209958358958077,1.0723472191208059,-0.08636868350576986,0.1444524767584833,-0.1430824553786174,-0.3504521482854785,-0.3691119896466099,0.05301592940124356,-0.5071501798632431,-0.22780612246610224,0.042253650446346123,-2.0899281586822624,-1.0353672980715707,-0.06417118437973664,1.542740073383535,-0.21081941616750313,-1.0603460257878436,1.2147420739669574,1.3619421866379813,0.5699106003679388,0.4758743973109562,0.18068330471782348,-1.1215977253451148,0.0708331527791299,-0.06662225991235415,0.22639391256606278,-0.6462708621041452,-0.8448248191414853,2.456304370963332,0.5150777750876577,-0.13323609988360016,-0.1646790238597762,-0.4662637294279999,-1.5765557175229843,-0.7837075635903603,-0.8661171619059106,-0.3312649451344433,-0.4794062625702864,0.37411989722154626,-0.34481131447156727,-1.7724210023203657,-0.547422322406904,-0.004449534680088498,-0.7131535323128017,0.005072567365764831,-1.2293749700347927,0.19859876225711745,0.052394786860367436,0.02379504068533775,-0.8496013229201743,0.0807658346800152,1.1585852505805931,0.11505293042235265,0.5922364763265898,-0.12567173659420575,0.16947326129915252,0.013150532031190166,-0.062109678930215906,-0.008225197924053428,-0.04083480179864728,-1.0102799686496888,-2.3286961890673514,0.37437690412571695,-1.177099748424845,-1.498565646232861,0.1017023836559164,1.874277748797461,-0.05532937260565788,-0.4612989638026986,-0.23650933829172113,-1.3717570163012454,0.6743744583918251,0.5484143336539978,1.3520022333682808,-0.8213294879721982,-0.636005819660876,1.2643933137619447,0.6913888554702826,-0.7158332881471973,-0.2849160462996377,-0.16363454712201905,-0.5049443920131742,0.08883427091682877,0.08438314460485818,-0.6984520336847407,-0.663446646367574,1.2752382768350634,-0.0979552056482735,-0.6938441886882355,-0.31917490591031256,-2.556924973766117,0.19374209771605752,0.5908044370346937,-0.013448877612446446,0.37874659923186355,-0.20655967510209675,-0.0957635671039011,0.8645061065193609,1.0119059084064173,-0.4648579652775051,0.06447308507553311,0.027728096834829213,-1.3119086229752606,0.09684506209041992,0.5590794644620477,0.4033169783726794,-0.288714464579475,-0.07429228038851432,0.8478282148101303,1.89239017414982,0.32260245568328433,0.015891046295050056,0.007622880977211199,0.3844041844210094,-0.23441445375138523,-0.35467174895651693,-0.18837520781051023,-0.021111328415775486,0.011198267977450193,-0.9018865460142136,-0.2620418792589651,-0.04576415147718668,-1.011688150656227,0.17148466201261112,-0.07009924842073902,0.9402758588723854,0.042800568594562736,0.48303841386406293,0.001330730727153074,-3.280707918820711,-2.70946551404232,0.9216272461538145,-0.5859112717391921,-1.212809979167741,-0.09447235456441283,0.17148007727265246,-0.07254118405243865,0.9986020687440641,-0.2906871470476751,1.9685337055253491,0.09312568273682902,-0.15347599000806764,-0.5640588404238457,-0.023442933180349363,-1.5801924910146166,3.2837449490150816,2.1602025766580577,-1.2100056089194886,-0.04721407133948535,1.1561468614201416,1.2925455468014049,0.5178648808138161,1.9821065738261838,0.33871174439097174,-0.9042598766672292,0.22950700813873373,0.9491627831190685,-0.18639618825999402,-0.31460288104156636,0.3154030664419288,-1.1240565849870532,-0.6163284171718093,-2.791432739467487,0.10237544404095773,-6.587947402848621,0.5722038724401197,1.9696086773486694,0.3861689888772491,0.271210759160986,0.22320045333749586,-0.3478957679805834,0.7715726755450573,-0.004983582186611682,-1.194323120372786,0.407779584055515,1.842213422703755,0.015961180086818256,-1.1563081386904395,-0.048825849060387,-0.5023476603844004,0.49720901588964694,-0.0489641318260127,0.9343098983394672,-0.08767211956963446,-0.017104905442722227,0.7919694536564492,0.08897773007938825,-0.03104606149039178,-0.23463545525289456,1.4532261285521226,2.0063589508310233,3.528661228733896,0.11540838956469984,-0.05807969885333975,-0.040323224501272376,-0.2342638810321546,-0.2218133469206418,0.22252813327179224,0.002695189249256333,0.12769085927496518,-0.27614116571610053,6.354958175538804,-0.6719099861456334,0.009472137982599035,-0.5457531375930077,0.30257520657828163,0.31228323130686286,-0.15284950823876164,-0.28272109380035376,0.2343213798778805,-0.09327280835602887,-0.1256837776787297,-0.10515735048565393,0.013784500814769077,-0.9070355912329283,-0.14590329375439345,0.07931729361970646,0.7085431987842691,-0.30417542890570665,0.2523342301552561,-0.3850227426108747,-0.3591702111822206,-1.0764758613700731,-0.06031162431561741,-0.7763227743227898,-0.10301921537829535,-0.3521179522730052,-0.377792201344169,0.7813348742026404,-2.1503275160208966,-0.07030225944260197,-0.8196292354557189,1.207276725181751,-0.5767474240809072,-0.13560370287176002,-0.40658809601430584,-0.2331780927299205,0.010428695381002143,-0.07168232621749625,-0.4337098163366922,0.5301956817076258,-0.21554228708118842,-0.17678170314897304,0.09392348590467747,-3.839635916543538,-0.35176657673589734,-3.2056842312853537,0.6656308716107054,1.1455832535593542,0.34631374960868816,0.2538979933757655,-0.5877115567083158,-0.35495438770662524,-0.4285616104832681,2.1665665886255243,5.273422506126576,1.529575454768158,0.004575761211134339,-0.4648133592149892,0.02567449252596127,0.08127491537658026,0.8989939427851058,0.8243555099860647,-0.08028048917028104,0.3890162666074846,-0.12886353743750864,-0.16772113627009555,-5.108356401982821,-0.10320535908812091,0.18262387529963728,2.6144516757799012,0.4117834687590068,-1.3994999895395164,-0.009891027596795263,0.11566021849903939,-0.591906581011007,-1.3006718827174448,-1.0586899246080181,-0.019586425094455722,0.2156014873343577,0.11182437859725601,0.004552178705111021,0.05828271309216496,-1.2008153312105547,0.38139983897429025,-0.2763123348344449,-0.0033575243905565413,0.23719609140554757,-0.014119503249713922,1.3315399215274235,0.3136894496855374,-0.9431033679657134,0.5338362960258748,0.24099590192491338,0.291592870453359,0.12440307669681865,0.45550250043277196,9.9494487885536e-05,0.24710270634450704,1.767875462928093,-1.5982640974387534,0.27001120120778704,0.01349100565992476,-0.6442762468265627,-0.6869985942224893,0.016393260345201846,-0.20441516870301327,0.03866585085219316,0.614138236042595,-0.5192843381911235,0.17414594589650242,0.17671517607512052,-0.0065714253862891895,0.6355516056512319,0.10118639493822727,-0.007492808106495874,-0.05073862650702047,-0.08244862063555207,0.6971962859802548,-0.3819509669282491,-0.36319988839444434,5.175515080198573,-0.03458646502783319,0.05320570779603697,-0.24776803443378773,0.047215192307008574,0.22247726969539025,-0.010772465653917242,1.0207776224476834,0.02648225738914178,-0.008808783505603034,-0.08024779539283211,1.371292427013789,-0.17849220837467736,-0.1665163194534954,-0.20417602852351854,-0.26868979704645574,1.3378206736473741,-0.13998915562987302,-0.10978915816371364,2.2703426566800675,1.220532243300366,-0.07946010446650592,-0.1496170269875862,1.1914674658065785,-0.5292587116986379,1.1244152565666152,0.029319913117922772,-0.010892373062329182,-0.41815413836364285,-0.21358105985117518,-1.5838475568248154,0.3143873157428539,0.504421178801949,0.0008499500253196492,1.078728151202654,0.7823302931746019,1.4770975260878194,0.850024124077061,-0.002837818231078525,-0.28475912934367936,-0.4662348168261721,-0.14323616989474752,-0.312390590176743,-0.2156462468450253,-0.21371098460143445,-0.33913606416001785,-0.15743102585578977,-0.9715320229558637,-0.1836356030751114,-0.4114720023636915,-0.5024984717912159,-0.1121598625040185,1.0774563920414304,0.8332381812891038,-0.03920210880186253,0.21114965878207137,0.2863780468157296,0.2754133903876091,0.3190539753813196,0.5062128027122758,-0.18250006626166046,-0.7212920093910311,0.9848712694121039,0.2804975450819009,-2.0957435598260554,-2.4312435909973753,0.1497065462734919,-0.17310549931626476,-0.2520355618642147,-0.8956433086368744,-0.2356702856949003,-0.2607035367854201,1.0006959764752885,-0.6800969020411903,-0.1486877800136183,0.34672039587288456,0.20459013500695114,-0.06801551083923282,-0.11476920820767128,1.3271140634160286,-0.22834859757924966,0.13239367468967198,0.5846800587094443,0.5903280479168318,0.9217933843390078,-0.6795430866758773,3.4249386120143623,-2.6909596293985456,0.03190613904628717,0.25240298166472624,-0.4027663619834492,-0.6180365530772559,0.7567043390212058,-0.005822642736578371,0.06008731675573184,0.16866376308079278,-0.20343723670476885,-0.37169164534612786,-1.5854210382466671,0.9430465940681444,-0.20018022880116704,-2.353154661819186,-0.14981047521351323,-0.7674004281198163,0.005614204374662087,0.07037854640272806,0.1787665192480188,-0.6386490208161649,0.48368754695005434,-0.041630184903855894,-0.03228429676519728,-1.1052817083901154,-0.026156355514919405,-0.2910058405809679,0.1513932361953442,0.24910221765799354,-0.14647031457944706,0.08738396398600351,0.023499352034659738,0.05094254280704106,1.1998117887861905,0.03065314077565838,-2.5599031373167556,-0.2988199652818121,-0.21548817938283646,0.011389961788410632,0.6124966666449598,-0.0024294553448261143,-0.023316058152418096,0.010075398906379145,0.30567496654752085,-0.6236621826898814,2.7351529900670286,-0.38692339143772475,-2.0737744481855303,0.2079597793517993,0.0753385545501937,-1.0437210241892487,-0.04632721078800609,-0.29618523950991643,1.2810386615102096,0.16870377146252746,-0.019276661837515797,-1.0933293418097725,0.09572234681288345,-0.15309302123823518,-0.26927943848433894,-0.2690488620156758,-0.12326325432664842,-0.2583067875565526,-1.4434516823468193,0.4066727466354146,0.018330064242902195,-0.024830285212516772,0.5214477907205759,0.33005922923500025,3.3792279139352934,-0.01800203833097289,-1.2246552671168904,0.35216216157250857,-0.07105149132498532,-1.3920351360363628,0.39778874589368257,0.38996959560404515,-0.19472401380427437,1.0684752498673429,-0.42439369120845066,-0.11425611153710057,-0.2979530142313785,0.20244567765126387,-0.40236589144317075,0.10693274107147634,0.2814076378224784,0.31891419702936763,0.11311639601020623,1.0017275283495222,0.060688410130792514,-0.07194457747244787,-0.00919521710530215,-3.5762250611496555,-0.4589627693372289,0.5449757885239473,-0.19505194046798638,-0.512474510721125,1.2935003111564896,-0.7799510661194531,0.8689639951700937,0.2520149769044213,0.15193347389728754,0.09536577206034628,-0.016041906396589235,-0.49245453933984296,-0.023290324647659438,-0.08924439433051785,0.2753146614274425,0.2829073093507774,0.105881549614967,-0.47447486253505167,-0.033572783175263445,1.9371280902313215,0.8947064837091899,2.1012120587540406,-0.34037609082643056,-0.6202585408032562,1.1106887430842336,0.6216895642459953,2.685789152926926,0.776054322974416,-0.04927719492620597,0.7247734359901603,0.3566553590174932,-1.1348533576875834,-0.2503306151579092,-0.1889237004910926,-0.141068696038989,-0.030329909080076167,-0.011551470386687227,0.2169390224784555,-0.004209704700099765,0.7472120891811569,-0.07743497956430566,-0.25491502829139484,-0.6342030580268432,-0.1391668734632851,0.18016453015989783,-0.02770205939721594,0.26991043679730087,0.0043414168493329085,0.02371074153604325,3.9080472350511832,-0.35317684458843734,-1.3885065668792829,0.570651503449295,-0.3469099453915809,-0.06251366177510163,0.447373581702421,-0.4815695699577369,-0.42994072258750343,-0.11514964033230952,0.17014262101982633,-0.14048575898938584,0.704074772070169,-1.1243544757895958,-1.1687208320240559,0.9992949395162175,0.5246451509791026,-0.10001613411049115,-0.11626009609665673,0.614378630215768,0.17766208749984883,-2.568033498150314,0.09683480034148552,-0.023007233507082576,-2.320948881567426,-0.3324929151720701,-0.011906729507303565,-0.013326961418883218,-0.3071984154646463,0.11431000177943014,1.1680507162005525,-0.0032300400438723133,0.1522690123142296,0.04439216378441955,-1.283316943836707,-0.2827911737562014,-0.4214251185369518,1.2929508436508588,0.051379385912503794,-0.390496740499054,0.6138758637423507,-0.3688883713981668,-0.30741514488996424,0.05967818142231169,-0.14988476385220037,0.04922270815935559,-0.31116874194270655,-0.400615294025603,-0.4012661653227226,-0.08540080740855555,0.3943135407001894,-0.062127443605081656,-0.6274680484321963,-0.3085196811175503,-1.1044378180509187,-0.04909218929289039,-0.03283127247632403,-0.10310527578863214,0.15204633303522871,-1.4661141063977343,0.16851536845542456,-0.03416062406562955,-1.3120578759627601,-0.03330889209400517,0.12401251345945552,-0.8086281505877834,0.050844131718035666,1.7496097601941623,0.10229931239154333,-0.0979166630619532,0.03834306727467566,-0.020294822101218888,-0.07739650895721072,-0.5089958839850053,-0.09261812938336343,-0.12962930041564968,0.04010145623956824,1.8233962787667999,-0.5819775672604934,-5.169207631912595,-0.3665327002419591,-0.2037666875372486,-0.10791215539121675,-0.3968244795083371,0.22768261836609158,-0.5211574355769334,0.32691578681698236,-0.05188678962443424,-0.5692471233119637,-0.03280110003014635,0.15324886164214188,-0.1275253579917118,1.448355411701659,-0.053604143261432737,0.6650156004970657,-0.044597209253607495,-0.5156246037341964,-0.09082909356764936,0.14692870438352926,0.014242204587397644,-0.3146462548564963,-0.4534183910252015,2.3232788391625694,0.3581926775980415,0.8859879676444636,-0.07421696902923892,0.20967556856252986,-0.31165886257142644,1.645435948728424,0.05692708294027174,0.7248686799016841,0.03610707348923925,0.01283851026643362,1.1104689142601902,-0.007524827309140616,0.2090463683966599,1.0545413017634349,-0.028905758642579483,-0.20042258521653614,-0.016829898036979225,0.013397043044017414,0.33885987854114336,0.0064737612833898365,0.1276017186389719,-0.03193576046571931,-0.3267714270657543,-0.01487841378614578,-0.08681158143268837,-0.2533369556651497,0.9004211866312168,-0.29996399451781397,-0.03741476906779945,-0.2575112018087848,2.6275756074423,0.06662100875244462,0.6087140577348739,-0.15292014661254247,-0.3083113966734647,0.16926928319797133,-0.2719931600157896,0.051739067286047595,-0.031895022835366084,0.09456468754846403,-0.41987306619070425,-0.38510371241320246,2.1790932464553427,0.2922911601699807,0.30246909316735854,-1.1114318097974278,3.950057228938462,-0.33386344375931903,-0.49868445351149965,1.6231290021673948,0.11101363091003473,-0.1141664977823431,-0.534925199034098,2.595385707868843,0.45045931140559653,0.03247308276166567,0.39112720686799257,-0.18956497383730894,-1.8335068895994795,-0.16841794676987076,-0.13832725716890978,-0.013121116710398487,2.134582477618395,-0.7037137662540628,0.05102769067808499,-0.016407082333105758,0.2670664311599676,0.0038713520296648624,0.3721189880361731,2.3889539750250997,-0.5675764042727806,0.10588033699706546,-0.4975516895365859,2.8208321228116016,0.25703618561094116,0.01410672938738572,-1.1902080883265247,-0.13119095714278234,-0.14249894808439134,-0.386209389697265,0.2631425520102085,-0.6349729355709198,0.6185465788902348,0.49132634200739606,0.014571853908911333,-0.012446422640940738,-0.2984273363825887,0.5121089264995882,-0.40859476083400076,-0.5181517686817098,0.29463467246295544,-0.09756253113449498,0.5237348182084247,-0.0007957683628272176,-0.35581767062911,1.623781922691503,0.007913818068652913,0.6568631697656292,-0.07990607265643042,1.8343284537979436,0.18926846161912123,8.488872420244897,0.09488188617674043,-0.0387815193373676,0.04123492233031808,-0.8559530766153025,-0.028695905736153732,1.7949021220377919,-0.23507567898613776,-0.019832631744201745,0.4915177940895501,0.7086178778393055,-0.44334368085246667,0.14324630881688202,-0.19820587405332799,-0.13515532438753305,0.1334711252430793,-0.2148663927107757,-0.1888090823765242,0.30115276967427296,-0.3826108973270696,-0.510081745245465,-0.019788196952545047,-0.22620047807624702,-0.07412574447161135,1.2922708075024933,-0.40872148770859335,0.11903269468250684,-0.35885557733616874,-0.06087377569993461,0.0747684704275204,-0.1416850640785297,-0.767733425608886,-0.07702467542724713,-0.4851275985578048,-2.7407024011723444,0.5035251356482803,0.3790515889395991,0.3368865558311507,0.01791300340773926,-0.999254970702764,-2.0085170165356474,0.08036344634376293,-0.006876681055299135,0.12360445003035826,-0.123747165076804,0.7065298073393579,0.13340916241142492,-1.822458500453102,1.0517330763881512,-0.5992769401603125,0.11701003110987813,0.28331607226065,-0.39143038516446754,-1.0191974083981898,-0.08529160161579648,-0.39960211267350126,-0.00132246035208141,-1.2814881416950497,0.005178065896947256,0.21055579813521588,0.17545441933411374,-0.27752622991221004,-0.09325240557027414,-0.03089213608709847,0.5040560753288809,4.37732632921658,0.6840433373182159,0.11052073303448547,-0.28109906788796635,0.2237419994299571,-0.2647289471940513,0.004023085772356789,-0.1619335841132237,-0.18866861078858,2.520657539379999,0.12123628243316643,-0.13023408309152315,-1.4550322792341202,0.5254539856800392,0.009899048744441323,0.008403270633058015,-0.2766940207290644,0.5427174927970221,0.8986514005903464,1.0117157262342635,0.07198307603123391,-0.6145055763525259,0.4226449814378385,-0.32977938335503515,-0.12828909956307777,-0.8048516853201991,0.06840741103173531,0.06391846503837584,-0.5624659217428571,0.0020088001086023878,1.9788294021586925,0.6472030681132991,0.25981051795116533,-1.7732299123347655,0.37281908600807406,0.3501867684230469,0.013129984835012563,-0.42203354572978324,0.721985294937363,1.6255840130123975,-0.6050662181858556,-1.0397974967489592,-0.2115544213625138,0.2998485920362626,1.1675545199723836,0.07395154661830236,1.0640222756492717,0.17718685915277108,0.10982496810269297,-0.23951074484238333,-0.13965531801209774,-0.2277762720234262,0.26922203929476585,0.06804571202662056,0.1729366090196385,0.545240714979394,-0.24144327341201718,0.6524522664219764,0.014583022093530434,-0.4417232081064432,-0.21409529495127252,8.472442560204607,-0.9361996146528524,-0.10446366049398864,-0.06327539286340667,1.054010829874592,-0.25701867438515463,1.4325769618157718,-0.020467291885778425,-0.19946667423575293,-0.06147335220035694,0.5273027136610572,1.580115178013742,-0.8930978492581848,-0.5538459141692093,0.023143247907481845,0.057815149030922414,-1.7542649631207838,-1.5817971611908856,0.4495819412010582,0.40510127182362604,-0.13502253174633205,-0.11776445052052574,-0.17570478040202545,-0.05696047698755898,0.0177754065490809,0.8638037642758102,-0.3259768143069694,0.26207497795545026,-0.23607295379417,0.10988570231698243,0.08582102985190963,1.2433771298772343,-0.15944676523279924,0.14183752763370927,0.3420833059063833,0.7053739670179683,0.6910735661810249,-0.24277461524914745,-0.19052932026973038,-0.4239740532969243,0.4269562634810577,1.0555698695382223,0.04650777269587424,-1.432935192576063,0.22688359948681155,0.02006372060023572,0.33580968561423613,-0.4728118685052051,-0.2883825997125565,0.2087606658245151,0.2584153640447188,0.06747199927463195,2.3496195805094104,-0.4503160917820443,-0.26486021642078544,-1.344639518083585,0.06048257749149467,0.018173150952602673,0.12434269480130154,0.03438326766647524,0.06177296134126381,1.1527885451451594,-0.6210197742689932,-0.4162654911050709,-0.19839763458417123,0.050971113544712114,-0.04208568763724844,0.03226248260381214,-0.019308176054605,0.37606712118227975,0.6949607969059483,-1.9666325597428544,-0.9571853039459528,0.01338460207524607,-0.07647594300482313,-0.0739433075707699,0.14483343913228622,-0.025797510294891635,-0.9813631361750237,0.033377483428314085,-0.09226909930182949,-0.022488795870635153,-2.1988836341751643,0.5876718761936183,0.01172850275990124,0.8821413750275026,-0.5491029317350159,0.0508861632659048,1.0745198563234102,-0.9512117744055656,-0.02952156462862053,0.2991775626433509,-0.13527711757987174,-0.22734337373652844,-0.07748550801004267,-0.26961048415902594,0.0358815805229858,3.0381298065165776,0.07906724096583599,-0.0263531174807,-0.21933849044970397,0.6073922698955637,-0.018132509976366926,-1.0233713832987168,0.36030395997161957,0.5571420412245777,-0.6916645251260091,-2.044700088150695,0.7594542923947732,0.33422737914726514,-0.6849728613342773,-0.061603200740115854,-6.511010341374682,-0.04555880754547747,-2.4585331658858425,-0.429254400793117,1.4778813692317632,-0.33722209498989414,-0.01982413364394607,1.2875944331146607,1.1037630862760626,2.609887546442947,0.7088815434380763,0.14106617311028158,-0.03260121304335281,-3.4387609371666934,-0.034071276779623204,1.8484163916587022,-0.13035773898528447,1.830982065248224,-4.684790065701253,0.07575950421551297,-2.3132182325510913,-1.5178813278953847,0.0694706710734662,0.021672623343872127,1.9131662027376608,1.3938045126576935,-0.13082896363434485,0.839048873233376,0.12064543303270105,-0.24528181729634876,0.13943248067398312,-0.6526345615214878,1.220044548780803,0.008164224957378183,1.350033877414833,1.1861384916877358,0.04074457276870341,-0.17970079294415067,3.9880674218612704,-0.3962548617747758,-0.006274201476474076,0.867766645429179,-0.420899835195295,-0.20755690116009193,-0.14284620188329358,1.2303106530324508,-0.006369496609353123,1.4265297909372734,-0.1664272931839291,-1.3062091964221334,0.4249677204448116,-0.4931092669394556,0.09806056078359136,-0.0708871285706895,-0.11145902429937017,-0.5602684054993631,0.07222726596688496,0.3970714196529211,0.09493823066098872,0.16914581154885766,0.5286669617069486,0.17428980487525783,-0.18580233944128888,0.2120245910366728,-0.755551541079317,-0.014655935206352111,-0.04503818917336951,0.03561795479057331,-0.013691565929008847,0.8662689778732507,0.177441387805216,0.04960175443915343,-0.14431376278264663,1.0026127897245143,0.06231897805177838,-0.14510733319512814,-0.009301925045078575,-0.265551068313355,0.38428193214168943,-0.1971043742884041,-0.7413900758253128,-1.2759497831826556,-1.387881268660923,0.04187492131176881,0.45780581814679727,0.17854236339980478,-0.008870708631610477,-1.0935730800777206,0.2684994783778469,0.8624594398121758,1.1176398729116703,-0.13381383381496292,-0.09514654824172403,0.02650592003324079,-0.43682070504335774,0.5219800037267475,0.10668990445433817,1.5221540651891672,0.5364067099901337,-0.6201076745389341,5.171220787238675,-1.407944205046279,0.9929800937158816,-0.03596188432533901,0.11165599933928028,-0.0019602394682326587,-0.3032463626828041,-0.8946797761233126,-0.4489547315429869,0.10313544007394367,-1.572272269605041,0.1002883451884744,-0.3039241635398735,1.6659277762166893,-0.04616448079692607,0.2848704459297546,0.5256589389956074,0.060285830992063416,-0.6257393614953938,0.07313641016312374,-0.7694519285212958,0.012218545948827842,-2.041617807067156,1.6144128342123736,0.21770869701979623,0.32840622201538316,-0.0975619268429116,0.16477968315913627,-1.734095973460026,0.1435234996514648,-0.3183694512265751,0.2914976596888748,0.15500006342797007,-0.7247174398678938,0.04927304594720568,-0.365464940438551,0.6394491507353199,-0.04640969554473252,0.29570769265138247,0.1620060154127785,0.450421207061329,0.2559840509449393,-0.15569019855049035,1.5154908582986082,0.6136043640890831,0.5576677674217937,-0.22404684003090422,-0.05483475316765396,0.21072967836456216,1.08452475679618,0.18404073763496456,-1.7785757001042148,0.2228807775009196,0.12332214122127276,-0.48182789726270653,-0.14939739281387612,1.1679670605586823,0.006679440772140113,0.15662138609303686,-0.09474532988342804,0.3238002547150811,-0.2306220726135865,-0.4575571798000952,-0.3764896402659465,0.02812134304071336,1.0427275292873788,0.3655400090123117,-0.9777999882123015,0.09370990034250047,0.1722075723912382,0.21875063258188007,-0.251327807191131,-0.4738958337205262,1.6766932273440533,0.27510058550023614,-1.526985010302189,0.04176466086288874,-1.1565552130186925,0.009027885067568733,-0.286276749313156,-0.18495765592048816,0.7736862212597045,-7.0689350996098455,-0.8503250180480723,0.4792883010690743,-1.0631576420200093,0.26025700448906725,0.06612102820115137,0.2487662822470267,-0.3546982075353957,-0.925250560707919,-0.221054443658371,0.5418299178698897,-0.583750287961689,0.2691809393092803,0.2832474819581437,0.2542819110083223,-0.3319854915333626,0.6874310507884105,0.09229616459842806,0.002991832190808347,-0.341280859395834,-1.4852077832254154,-0.5464804607824031,-0.2559007827405626,-0.40003112396022855,0.03410140373269984,-0.05218382363268753,0.002502899571180096,-1.2864279839743247,-0.7648670654030836,0.013787516894972781,-0.3189446370088989,-0.6350399309060845,0.694016226591196,-1.6011563310081922,0.463764542145696,-0.26836963082636917,-0.46776614993346294,-0.5037083964309083,0.4065115073333845,-1.164268900831629,-0.14121292224943416,-0.8783468466307731,-0.023778738933910862,1.199810980183699,-0.04940396366815462,0.0010343691085093155,-0.08892358223080465,0.8605782864576605,0.3768341490133474,0.15750384061560582,0.9757940705924127,-0.08426985257127344,-0.761127898479983,0.22265128098718404,-0.09865140106940797,0.3068795785625426,-0.5960047304183912,0.3400644111082997,0.20232515086062067,-0.1017327409185082,0.1454381042664402,-0.2987550521113224,-0.00844916593658558,0.09976010992995273,-0.06847393096404127,0.2437064702966024,-0.08725431609696532,0.2567157269456765,0.36760001222240396,-0.4807221380827909,-1.7317112974403208,-0.4421993430074056,-0.11511042722898977,-0.2520900741323789,0.03521404829547989,0.048238413317365274,-1.2495431894576565,-0.3142690876641987,-0.479938442754096,-2.5627671872655267,-0.12086347854886882,1.6640001387973327,0.24786352423118305,-0.20033092852993448,0.22255835063675045,3.563776252656529,0.7074314296316159,0.37248093903249085,-0.05403094720029277,-0.789963213146888,-0.18467217926126542,-1.022442555003896,-0.9232734390815499,0.11408891077838974,0.04658085300874951,3.8844568715800207,-0.1813382135483346,-2.415127148274965,-0.6467845484181441,-0.5435208630896351,0.25843544126410606,-0.19985857430782497,-0.9947433841186814,-0.3759271795323473,0.00641088943423181,-0.3533717093998001,-0.04188416135778885,-0.08383991641875821,0.05661278385319618,0.02772649189282783,1.3107272256394467,0.1997284972920497,-0.5095436220621632,-0.17128551389178626,0.14625664156735374,0.117505056356772,-1.611198066215569,0.08193091776652695,-0.2680221191315761,-0.18089313324087306,-0.027805223872931977,0.062281005626901864,0.5887759999590705,0.061559568602221004,-1.126344602759158,-1.0994820158267622,0.18371879798889723,-0.08992677757833933,-0.09712301397640714,0.15529346126662744,-0.004419158151139761,0.14693788000362726,-1.0569731427411755,0.25132309785322016,-0.2549983610727929,-0.1087430223071062,0.004598309426708853,0.0029164846937425374,0.14154588897931814,0.46195426102039905,0.049032967556824604,-0.2062720037766351,0.9106762623095076,0.5424531070132902,-0.38199398527108436,0.35149760370750877,0.8754254680822232,-0.34087669354328054,-0.10650364857182783,0.283725139536298,-0.7381308382634609,0.041363923503004454,-0.32688539367987945,0.15129999911362227,-0.015046258074735698,-0.18998288858285173,0.5026350459814227,-1.6293538431628747,-0.5823036397359203,0.10188582819637676,0.9165860173614923,0.03030117342189434,-0.5976965754441617,0.9132420542997961,0.4201719393189319,-0.5650012282797073,0.45756786009979217,-0.05693197014442671,4.0021027931036235,-0.9240413800051465,0.3953054567975973,0.10281093513107449,-0.37858337213539683,0.05824128847903237,-0.8401373777622579,0.40797157935782175,-3.4564650774655568,-0.16763595742213053,0.0614042148589092,1.0353655406755764,-0.005979139653440604,6.98742702168978,1.096724042053031,-0.06251546068381268,0.23265110316969972,0.16801216934840435,-0.09625386137837932,-0.1498774706602647,-0.9079254274689413,-0.22186902066029554,1.3343576835310567,-0.7253185584741254,0.18022988108897933,0.2963995763721353,0.7031687718159514,-0.41890871468594537,0.670341322101236,-0.7454689263217547,-0.10307037627298672,0.6630681742934231,0.15347682235638394,-1.1137836433151846,-0.044238480096165066,0.1405718940181883,1.098270590018235,-1.6937344184069048,-0.04313082215292579,0.09549055379846115,-0.18361861657678888,0.018538159348572038,0.17548687171305133,-0.4791080902663638,-1.2775436044742958,-1.669319720182406,-0.526889442071742,0.9769611261839124,-0.03518306911459856,-0.18139419677435828,0.4190960092619081,-0.01546722712399115,-1.612323258260745,0.30965801257632336,0.37540346494839816,-0.22979640128478487,-1.6732095583163893,0.055782244393859835,0.1457353394467312,0.18503410826591957,0.03817821442061272,-1.0228519949252373,4.093731153561525,0.4716739800650703,-0.4066478283577985,-0.48677698687947063,-0.035259559751868674,0.026824045160137183,0.039107716217803866,0.06355664911904758,-0.4320715009214022,-0.4460124635586931,0.705858723595907,-0.207701471085575,-0.04568581192495163,5.850172061440186,0.06683401328507252,-0.1275931839951574,-0.25606622295517334,-0.04526648757018074,0.07620294869883638,-0.24301646522918519,0.9956537032467786,2.942726539981002,-2.2856067004056677,0.21284946980883776,-0.7345820340579604,-0.06802219505222334,0.47541939199569766,-0.5721284410525681,-0.2432653941787565,0.5006039409554798,-0.2364381382971017,-1.000152100340788,0.20644174612896116,-0.0976786054977315,-0.1488495548287628,0.03753640230339403,-0.040149791611944034,0.5753155203531164,-0.1604709738670122,-0.12694813332585655,0.048027233349249965,-0.076192773764381,0.025766133923679727,-0.052520121735665413,0.036610614693302276,-0.4647784253909788,-0.5939727800416086,0.10344585571587644,-0.7322657042775721,0.1783513375216493,-0.15592023813608336,-0.22433010127056127,0.0719857377484066,0.11897770077476566,-0.2831724034536905,0.0863079630550146,0.16475518897700375,0.26138814607295563,0.41686660453899765,-0.21508001214892145,-0.36430485668556084,-0.006113115456975254,-0.6801617123204408,0.18579821015603173,-0.049032913461923476,-0.13072016251264953,0.14000077033797523,-0.0057341341910280225,-0.4562574628478682,0.009567456754805272,-1.293876453339732,-0.019907606136391993,9.104802432031471,-0.4284814252146887,-0.02959622841036222,-0.0011846555939527285,-0.2294751267645856,0.2570611539803202,0.06486771585554489,-0.00522217472104386,-0.04014255314479617,-0.5500501580038307,-0.07190699413621628,0.26081313784414056,0.13088923249814657,0.13351450643997445,0.05550682844701632,-0.36229792120756366,1.6782824811568828,0.5109176783680792,-0.00530761531904009,-1.323203985581295,0.6466470172642184,0.34323857675730746,-1.5276318913802998,0.16200019042531383,-0.12998612280549196,0.03475531005221917,0.053395289690108226,0.21017678714990629,0.03133647125646572,0.46661465973889066,-0.09492731901245721,0.19480687928872273,-0.21867960163716602,-2.4665118268133015,0.6033116147611651,0.017032627485153915,-0.11118625766365203,-1.499614389068813,0.023571522814661055,0.05551331261909536,0.42346451117937134,-0.19541591039323927,0.07493425823893651,0.1149841256009918,-0.5282959564108053,-0.4629292826475697,-0.635654776706049,-2.105472124702295,0.07276982136325705,0.2056860201459536,0.30066682221129976,0.7869037544504985,0.06229379456715437,0.02283493830668094,2.1773387460511606,1.6996552961953049,-0.138637428310741,0.9615594776304794,-1.278661187890649,-0.07477539803571959,0.618838916811338,-0.6759728962019503,0.09124614010896759,0.027400580605945194,-0.27480844803681115,0.15853901281675184,-0.05150728644204818,0.7723160346450757,0.48511061429268687,-0.6366266471171534,1.2490040404505256,0.5663575076276138,0.00301976535915228,-0.022366029611199864,0.3728783849876564,0.5419740477193294,-0.17369096294622396,0.040566046836160295,0.232648946385878,0.6056151053531751,0.11764955983387537,-3.2866288104342942,7.677868520304437,0.13360237044281,-0.6222907983314228,-0.5631331495890687,0.1988851200516452,-0.1680476405382211,-0.8716800549465752,0.12267821864125021,-0.874602729973033,-0.09394574758903651,-1.382352567383495,-0.08263687169335336,0.018972762141417843,0.21645904684791303,-0.041301553607027024,1.376480951319106,0.17189363370258778,-0.004064560800328381,-0.7069325843911263,0.09041949252258048,-0.013068621677304736,0.18478614534998147,0.013525756072268724,0.05424874997602102,0.06909958463009717,-0.4160167375858765,-0.3502522481968405,-0.06394533178817945,0.2933118049523999,0.16326997257862852,2.660006081623472,-4.45721626130361,1.9995593367353406,0.47360080803588794,-0.02369452608296056,-0.24404011712309778,-0.5284740149517759,-4.675965122441188,1.0623573055990692,0.02308735413533708,-0.16508933811753765,-0.0730404449906467,0.06832301004495712,0.2641511280022917,-0.04943221215746733,-0.0416871452004669,0.2570079997444312,0.69969893341664,-3.673814303994282,-1.2533481854455075,-0.1085102888779446,0.11742457497806456,-0.037826178438286236,0.005265102373802125,0.22981861535199008,-0.3569005466998257,-0.031597760468779636,-0.3568960547770299,-0.004212401929902355,1.113050123114519,-0.6815660525995278,-0.349089901809642,-0.7111931468688514,-0.030485690406004323,-0.550603349479481,-0.2702599167241719,0.04819519734094477,1.7691731141596811,0.44558968996692333,0.141036218298288,0.4342458369355478,0.17457638553861873,0.2458725734482139,1.190119324255487,1.5983677201895137,-0.23545748319169987,-0.007673838977132437,0.4354134437217776,-0.16278287291162896,0.22444869624666508,0.6973884946973773,0.17372497775082082,-0.12264696008776303,0.6155861318059778,-0.05254248860505543,0.17323491393549287,-0.007779621872211315,0.2933390177830946,-0.10524752757245288,0.04479925958653433,0.1673380603380581,-1.1782748604706468,0.05246933686096525,0.8958276730119222,0.3170626739828483,0.6648004075609277,-0.17461815980770723,1.095250687868482,-0.7380725657170587,0.06355074645514379,0.2620421141650031,-0.5007361395042786,-1.3927709972654485,0.3327662577522352,0.1406882478753266,-0.12247150128408936,-0.08705102740213731,-0.9758552099064919,-0.0007496411127014563,-0.1527019302996925,0.49602107925601624,-0.0794471387570778,-0.4589908468805688,1.3441443122734416,-0.002600991121650673,0.09467069713940253,-0.9561370179883234,-0.07281609941527313,0.16347801992041172,0.5391592974879464,-0.10489393093561751,-1.6572318100900818,0.3202033888375787,0.3624737851377568,-0.3556206660356216,0.07835544324287975,-0.25947700473870716,0.0030088283981320077,-1.3679724839739673,0.04575211063681536,-0.22339239201340136,0.616414126603566,0.5260767041268885,-1.5861418066450013,-0.6744433947141633,-0.9587031189685359,-2.256673494602318,-0.5619230804489157,0.37987096944153215,-0.2529785385984408,0.5501036695578269,0.009408733226004034,0.3440142480914073,-0.24229018541544223,-0.17019771260226588,-0.05617640214540256,0.061988350685605854,-0.38472261290332255,-0.859004978495108,-1.413191441882591,-0.8308578282197278,-0.48876796290932883,-0.14502793244602608,-0.10227633656265574,1.016999309088668,0.13770164857739817,-0.01272879306058463,-0.4267140705271982,-0.025696558228442384,-1.1450368504333908,0.7283787932759783,-0.6303936308232946,-0.11815394396254708,0.6705860731206341,-0.815945728679965,0.1331311511659515,-0.24563811762354437,-2.3057529372968415,-0.7837384100137901,0.14278920954621474,0.07975118698426381,0.07315651465804233,1.7245868303503171,3.9550632089715005,0.008440500969935547,0.5706564794005368,0.06724894028975446,-1.2883109539371298,5.913837149337752,0.12616755371007723,0.6858299848084272,-5.817003921495064,-0.23980803468230305,-0.18372621048650492,0.10372094376794154,-0.05682374382684955,-0.036078528779205234,-0.27765533674232884,0.5836076664442524,0.7912732039712081,0.06264554031840103,0.1276676484794059,-0.9080288436835208,-0.26855844140488433,-0.6522942291054267,-0.08003928009680851,0.0945796009942066,-0.15541653080809748,-0.0937688367821977,-0.615038963601172,0.4114849726102828,0.7395101366891659,0.9981182301943997,-0.015981526979643255,-0.013979883269350143,1.2467409126105233,0.3919700314079367,0.2880923337504547,-0.041490229819556586,0.5152838155130791,-0.050675953254553735,-0.08528675159594996,0.17970112827790563,-0.09773796711544937,0.6678282498272036,-0.3607898037115819,-0.047638779967017875,0.14767619976410518,0.023563878732933613,-0.7918445091270625,2.534482683306777,-0.036205740434612645,-0.6963387374747297,-1.3235798526431684,-0.11238184555256782,-0.4768294356494643,-0.6740127438765748,0.10299249013046093,0.4768795225677355,-0.08020554484214333,-0.19643268818515938,0.22649306222355037,-0.03128875806227235,-0.4889267776708593,0.9173727849690961,0.6379267368894176,-0.07997020539980403,0.05965612513477244,-0.04454943864007933,0.13591259763946115,-0.2268123572956091,0.35894386951865237,-1.100368284828115,0.12200510707374927,-0.012935431103247979,-0.11033867822511655,0.40697869342048554,-0.3014299053486623,-0.10026320483418079,-0.21344401982023795,0.08657504693922868,0.22611486650641766,-0.0461820591293075,0.07683470556033475,0.030659678175942284,0.25301250206282994,-0.039488913474556464,0.016461265380254168,-0.5251484264251131,0.017986877044106314,0.6746933294867032,1.1675715179984671,0.21584278496507395,0.3220627794897795,-2.7321917306919867,-0.5802960162880736,0.0490170896752209,-1.148018675924331,-0.7032175171927261,-0.015915772133962433,0.08117364736863301,0.010964994890772026,-0.3559638136497045,-0.010992276411994906,-0.07390764918771324,-0.1364496512697954,-0.0336885959807537,-0.025444006107435108,0.7493258231099937,-0.8237707675784338,0.5376913810906007,1.174168360594665,0.019550022481641158,0.8414390211132742,-0.12764579427976452,-0.11068819813333486,0.8864730540438376,1.2875749538700496,0.04370149924611597,1.0050103382928286,-0.43966655399556126,-0.6499028005714567,0.06941748919886294,-0.0024996588229804335,0.24586520365237766,0.20726538225713134,0.014456295441866348,-0.3741895316609609,0.09976305708788509,-1.4131334707365226,-0.25129976011135496,-0.911340982932434,-0.131973820579853,0.8723753212888151,0.06944396709746363,-0.15713233264966228,-0.08433545405676435,0.18349641184559817,-0.005132957682493613,0.33980107378377894,0.1392241495179136,-1.0350738670711035,0.062346684919743135,-4.007851526513438,-1.7811714316961282,0.07473442962224972,-0.3523229206589417,0.8812884718087005,-0.6415261339472366,0.0811227333704687,1.2557038718025353,0.3238382723869076,-0.9695180541859032,-0.23283980282665237,-0.010772261353975202,0.4024146526352088,0.8579188076778022,-0.020409036343265057,0.34125607056386037,0.2879506750613104,-0.2255879088412468,-0.14292389097233307,-0.04584503431231523,-0.7307311773280786,0.14688862075251694,-0.003379259346119354,2.848978334903373,0.5258859014802956,0.10015070089017915,0.38615418087633335,4.869683595811739,0.03375346965867252,0.11169769753054104,0.9879658694263066,-0.6461096429393028,0.1280480997004369,-0.13786165301402942,0.3053070787396704,-3.64813040093663,0.6287123919717719,-0.0067139532444354675,-0.1993926637963718,0.5000958737287371,-0.04970858192250247,0.1519733111974369,-0.22186130264561532,0.2015492508612302,-0.02222035596864091,0.6740797989488319,4.9565983986966815,-0.05324728154610933,-1.078543068998404,0.9817963665338061,0.10141650494517734,-0.7684091863691672,-0.08772256360444507,-0.1007439539111652,-0.04647023714735398,-0.5774826582578544,0.3207710261767306,0.33179542990703476,-1.83448449962352,-3.5799111160797046,0.7395577521151185,0.3698577083514151,-0.061902394901418016,0.16424313129237533,0.8502590360213742,-0.14857404851199676,0.40995370532341124,-4.36120450133413,-0.13091404954514121,-0.4173274137788588,0.539884093168462,1.1586317663204688,0.5920112506369125,0.9562825291488206,0.11726995989664513,0.6932072914847001,0.12306062763336723,0.08587404763577973,-0.529456388689924,-0.9650839719044169,0.016234173608493243,0.4674935327909369,-0.01992786732924201,-0.2599268443816642,-0.5304485931130811,-0.10400209316680621,-0.04583997053552847,0.13454466919073305,1.2628150643209506,1.1896466141743638,0.08276706343563871,0.21532119566344685,0.432345380805169,-0.16599682516189543,-0.45649023860957794,0.09361549143428298,0.5019932202396121,0.004911606042038906,3.3034307685246236,-0.12418359846806933,0.01804313548304315,-0.011530429528085731,0.19818714725070175,-2.856382473562833,-0.04762669252152032,-0.21003646450153723,-0.8965445965067328,0.07919756609776747,0.09618931012646507,-0.2706670397167258,0.5379187065201202,-0.004399951863591159,0.366784437862075,-1.4042622093056971,-0.4682254915909925,-0.4399331793560161,-0.42415976482910644,0.08356661052750104,-2.6491348732414903,-0.5954984264071,-0.3616846905894948,0.19610199369537315,0.01215958296660303,-1.1638803507791706,0.573747545846822,-0.08770679000371089,0.4001009630521903,-0.3922724934852198,0.01193801032091363,-0.019434772422237002,0.5187640796691644,-0.05948232350085731,0.12273820382897348,0.30102424585326437,-0.14536367162721145,0.006978371362981697,-0.4242457916132382,-0.4439676374288479,0.89261840794334,-0.4395191765458621,0.12100020055064335,0.38042479804461543,0.5969941120417895,-0.02746385752842372,0.011692803379170157,0.11438914242020726,-0.027273705402133,-0.18194602249970973,0.42948810694424133,-0.24851751601220443,-0.17533584767508925,0.5439955774364401,-0.47367414343707637,-0.6505427178842308,-1.4605885278669157,0.10017682293398299,0.023198325771951477,0.5464242155304156,-3.6774592354510207,0.4465868189170477,-0.45370566458425543,-0.9001600095510849,-0.1529478529649356,0.014157106846872589,0.18989881448209678,1.90913223297846,0.06372450293753085,-0.18830103085027394,-0.1233414980678934,0.021611420407534474,0.00044446412741257164,-0.19545471124871974,0.5630130054304915,0.0645537270597042,0.06359370746957226,-0.014129340367923052,-0.09675115242983962,-0.011073558958186227,-2.0305246724708774,0.25042116392162633,0.43896420108339523,0.6006304701813613,3.361106864163626,-1.5398446248088231,-0.5952461826871416,0.17445707827923426,-0.06789329152200115,-0.3318241191145082,-0.0033226775831215866,-0.7775406667050225,3.699215695314954,0.783666437150966,-0.0638252572609715,-0.07292917563948086,-0.29177440835677043,-1.1212956147981565,0.12370380037503796,0.0699995866486071,0.3578648838838993,-0.0748987906076542,-0.09249698543505593,-1.1582781576941126,0.004297223072506454,-0.07065070430950732,0.07013251483553944,-0.603543588049133,0.19374725968520193,0.02533402096975874,